h3,0,1,2,3,4,5,6,7,8,9,10,11,12,13,14,15,16,17,18,19,20,21,22,23,24,25,26,27,28,29,30,31,32,33,34,35,36,37,38,39,40,41,42,43,44,45,46,47,48,49,50,51,52,53,54,55,56,57,58,59,60,61,62,63
882a100007fffff,0.44572964,1.0751718,-1.5836359,-1.5690914,-0.76935726,1.3553792,-0.4904337,2.022977,-1.5154686,-0.5880926,-0.3807214,2.277209,0.008855489,0.52899903,0.7357254,-0.5465644,0.8364279,0.20489629,-0.49393427,-1.2764612,-0.9251671,0.3024239,-0.17973705,1.8152466,-0.9900678,-0.0321443,1.0846435,1.4813752,-0.42076302,-0.6724505,-1.2471037,-0.29572815,0.047182232,0.7254522,-0.32828352,-0.83853954,1.047682,-0.5033528,0.016424617,1.5773814,0.5850557,1.0557112,-0.6215524,-1.2443169,-0.6027618,-1.5522364,-0.17593782,-0.10653484,-0.40371376,-0.2973988,0.18605132,0.4416689,-1.5875038,0.689181,0.0038206312,0.59869164,0.6536741,0.023306886,1.0688266,1.0004209,0.6781,-1.165531,-0.4647483,-0.80746275
882a100025fffff,-0.39202014,0.11357808,-1.2329918,-0.061636813,-1.1369976,0.641122,0.49628407,0.50246435,0.67700493,-0.24062885,1.479323,-0.48995897,1.5697608,-0.56954294,0.52721477,-0.8760617,1.0999155,0.67157865,0.27294388,-0.5400752,0.4005083,-0.40820837,-0.694526,0.8706814,-1.0904274,-0.42672756,1.2164063,0.3771108,-1.0199579,-1.6832194,-1.6173642,-0.1829235,-0.5572813,0.12921244,0.8515454,0.65890396,0.7366445,-1.6188023,-0.06673743,0.90779686,0.42868924,1.5982656,-1.110036,1.2588987,-1.4520588,-1.1532342,-1.0654463,1.6488792,-0.62122804,-1.050552,0.4323609,-0.9550172,-1.01993,1.0278442,0.19202174,0.83342576,0.6989806,0.18666448,0.8042304,-0.3624707,0.4908702,-0.19875221,0.46525922,-0.45720434
882a100027fffff,-0.66526526,1.6219573,-0.31880873,1.2575176,0.13997746,0.9822776,-1.1984229,0.17869383,-1.6983898,-1.1934469,1.52105,1.74517,0.6142843,-1.7343817,0.2635988,-0.16840103,1.7276905,0.47582114,-1.1787105,-1.5494428,0.66407657,-1.1932728,-0.14167099,0.615433,-0.8709297,-1.2358859,-2.0572014,0.5929078,-1.4120188,-1.7972386,0.5946688,-0.53138703,-1.5360734,-0.7980478,0.29006863,1.6660392,0.56176776,0.96410155,-0.5084295,0.47064084,1.1650038,1.3058023,0.14739493,0.5880944,-0.5857388,-0.9138227,-0.7588968,1.8725021,-1.0913513,-0.98803246,0.15477021,1.7537761,-0.14014691,0.85681415,-0.13114874,2.0909233,-0.1122871,-1.0505539,0.6588738,-0.7061717,2.0101151,-0.5688423,-1.0372026,0.19107735
882a100029fffff,0.022239093,-0.55542403,-0.8495101,-0.029757993,-1.4808398,0.3731402,1.9778565,-0.006420929,2.3715618,0.08101997,1.4190173,-2.8908093,-0.13757622,0.19979511,0.9480007,-1.109445,0.15047811,0.59370184,0.7357661,0.012067521,0.023473132,0.05078132,-0.5652839,0.8115486,-0.2716033,0.21685418,2.8095074,-0.12303969,-1.3869133,-0.72183645,-1.7317381,-0.7791107,0.9426576,0.783727,0.52023375,0.33770937,0.022670893,-2.3152654,-0.47162348,0.5556685,-0.20008792,1.5042301,-1.4954664,0.9469112,-1.02244,-0.61992186,-0.76473683,1.0547926,0.5055122,-1.5519599,0.033892464,-3.0230784,-0.006158589,-0.02253112,-0.015373694,0.48963156,1.0980587,0.42290094,0.58255476,-0.31858587,-0.57951194,1.3605825,1.4401965,-0.4110471
882a10002dfffff,0.022239093,-0.55542403,-0.8495101,-0.029757993,-1.4808398,0.3731402,1.9778565,-0.006420929,2.3715618,0.08101997,1.4190173,-2.8908093,-0.13757622,0.19979511,0.9480007,-1.109445,0.15047811,0.59370184,0.7357661,0.012067521,0.023473132,0.05078132,-0.5652839,0.8115486,-0.2716033,0.21685418,2.8095074,-0.12303969,-1.3869133,-0.72183645,-1.7317381,-0.7791107,0.9426576,0.783727,0.52023375,0.33770937,0.022670893,-2.3152654,-0.47162348,0.5556685,-0.20008792,1.5042301,-1.4954664,0.9469112,-1.02244,-0.61992186,-0.76473683,1.0547926,0.5055122,-1.5519599,0.033892464,-3.0230784,-0.006158589,-0.02253112,-0.015373694,0.48963156,1.0980587,0.42290094,0.58255476,-0.31858587,-0.57951194,1.3605825,1.4401965,-0.4110471
882a100039fffff,0.96402866,0.9576718,-1.2623484,-0.71959984,0.7533323,-0.5878381,-1.3901069,1.3366789,-0.53611135,0.15949029,-0.9343588,2.2391853,-0.04825809,2.9748137e-05,-0.14476165,1.4421033,1.5687789,0.9190395,-0.19772395,-0.62833923,-0.60827506,0.4929782,0.31851712,1.2611104,-0.90102565,-0.53430283,0.27193823,1.0951271,0.6333191,-1.2477584,-1.5888911,-0.36392722,-0.20308445,0.8272134,-0.9870265,-0.37237555,1.3583403,0.7797219,0.85244405,0.50208044,1.2404263,-0.39346254,-0.52752167,-1.0559704,0.5430744,-1.3674742,0.0057167686,0.1519144,-0.5335056,-0.18857579,-1.302577,0.7225515,-1.2782145,0.020319706,0.07532159,0.99517155,0.03602076,-0.8293876,0.15570812,1.692369,0.6999826,-1.0988146,-1.018212,-2.2027314
882a100067fffff,0.022239093,-0.55542403,-0.8495101,-0.029757993,-1.4808398,0.3731402,1.9778565,-0.006420929,2.3715618,0.08101997,1.4190173,-2.8908093,-0.13757622,0.19979511,0.9480007,-1.109445,0.15047811,0.59370184,0.7357661,0.012067521,0.023473132,0.05078132,-0.5652839,0.8115486,-0.2716033,0.21685418,2.8095074,-0.12303969,-1.3869133,-0.72183645,-1.7317381,-0.7791107,0.9426576,0.783727,0.52023375,0.33770937,0.022670893,-2.3152654,-0.47162348,0.5556685,-0.20008792,1.5042301,-1.4954664,0.9469112,-1.02244,-0.61992186,-0.76473683,1.0547926,0.5055122,-1.5519599,0.033892464,-3.0230784,-0.006158589,-0.02253112,-0.015373694,0.48963156,1.0980587,0.42290094,0.58255476,-0.31858587,-0.57951194,1.3605825,1.4401965,-0.4110471
882a100093fffff,0.105624996,0.92649734,-1.2474171,-1.1973572,-1.2632484,0.7458367,0.60076797,1.718185,0.056001276,0.20448354,-0.3121008,0.33032757,1.6295028,0.42905977,1.1444699,-1.4231454,1.1840879,0.13117595,-0.38506207,-1.8487912,0.26108828,-1.3272465,-0.8352816,1.8306773,-2.019143,0.032836456,0.5585747,0.98136276,-0.5379739,-0.82410055,-1.079715,-1.3826193,-0.6082195,0.10550987,1.2169018,-0.44688833,1.638335,-1.2860874,0.17401436,0.5423316,1.5063862,1.135708,-1.2574894,-0.28968725,-1.6825118,-1.4126532,-0.68133795,1.1557028,0.32355753,-1.6098803,0.8779354,-0.07882135,-1.3195494,-0.84706134,-0.03518164,1.6242424,0.4750744,0.48343116,1.4259207,1.3747699,-0.045446556,0.18972078,0.6228404,-0.63226503
882a1000b1fffff,-0.62052333,1.299461,0.09384666,1.0760988,-0.7437553,1.5327878,1.6519037,-0.82352567,0.20535937,-0.7132605,1.2202028,-0.99531406,-0.25889534,-0.6866519,1.0061046,-0.8118224,-0.054574456,-0.6046238,-1.5464207,-0.95625997,0.045937292,-1.0017495,-0.6604159,0.05104338,0.37701872,0.45089304,0.34129348,-0.89532006,-2.6835334,-0.2299381,0.47129467,-0.3498573,0.5683251,-0.32489434,0.40408033,1.7052691,-0.18437481,-1.1209861,-2.2369623,-0.29256764,-0.59151596,1.6315855,-0.0029332961,0.7358361,-0.6428701,0.28837013,-0.54709786,0.9205155,-0.056534246,-1.3618869,1.4248251,-0.66215354,1.3938099,0.21560887,-0.46416745,0.4102287,0.5389598,-0.7843011,1.0501299,-1.7811118,1.2088938,0.73346955,0.9672537,1.3834231
882a1000b3fffff,-0.0076172524,1.7739006,-1.3586761,-0.58166444,-0.86198735,0.9816113,0.44045493,1.0560796,-0.32483202,-0.21021599,-0.083187304,0.4881361,0.8539461,0.0301326,1.299403,-0.9080229,1.397901,0.1816905,-0.900696,-1.6623436,0.04622227,-1.0871145,-0.7209198,1.7230033,-1.5134143,-0.11994816,0.20041537,0.88933474,-1.2544137,-0.9306267,-0.8201906,-1.5012048,-0.46005496,0.28068388,0.8403124,0.2407194,1.5358073,-0.7705863,-0.592422,0.5716905,1.4185249,1.2691526,-1.0802444,-0.36014855,-1.1191131,-1.5706134,-0.7542044,1.2400959,-0.010031322,-1.6345463,0.86065596,-0.35235012,-0.95829976,-0.42394665,0.19566123,1.8230921,0.7244678,-0.30097324,1.3132038,0.5360224,0.8166401,0.24366125,0.2784125,-0.5011354
882a1000b5fffff,-0.8451146,1.0098025,-0.8002644,0.30643743,-1.1283588,1.0853137,0.75017464,0.41917858,0.019115213,-0.8098815,1.2881489,-0.33629784,1.2864426,-0.5490603,0.8775595,-1.6422594,0.89249736,-0.045988496,-0.5100674,-1.3497221,0.60759383,-1.1412293,-1.1833085,0.8623587,-1.3072981,-0.23214635,-0.081928425,0.28421518,-1.752603,-1.2856997,-0.14851937,-0.7158486,-0.69319564,-0.19297321,1.4979051,0.992511,0.57643867,-1.2564969,-0.7846784,0.36792347,0.7950604,1.7745557,-0.64326,1.3150728,-1.8166997,-0.84890544,-0.9845033,2.0161867,-0.57191104,-1.5428358,1.26788,-0.057257243,-0.34766415,0.30677482,-0.017332736,1.3602867,0.4809902,0.06810061,1.2960681,-0.81462777,0.94571996,0.32403222,0.5831529,0.55405897
882a1000b7fffff,-0.38889945,0.87984174,-0.91482985,0.57446,-0.17068313,-0.23842916,-0.28129703,-0.17762974,1.0681585,0.4193014,0.65523654,-1.0130357,1.1459,-0.9256906,0.38392156,-0.40468845,1.4254835,1.2383715,0.22679065,-0.6114537,-0.017642338,-0.85547507,-1.1648952,0.78009295,-1.4114217,-1.1841666,-0.15075278,0.051603373,-0.49699777,-0.9982245,0.045239523,-1.4278122,-1.1943702,1.072965,0.6621125,0.57032937,0.67942756,0.054779503,0.30716214,-0.14169498,1.3982613,0.7822023,-0.4186204,1.49368,-0.83961517,-0.93924886,-1.190537,1.9776738,-0.44548255,-1.6970248,0.07316073,-0.8153752,-0.3430639,-0.30472144,0.60494304,1.6310365,0.51868784,-0.1176438,0.17917557,-0.4394006,0.7716544,0.59136474,0.18627204,-0.7997062
882a100101fffff,-0.69315517,0.65633523,0.69716287,1.5101467,-0.09960409,1.0370222,-0.5311372,-0.9343218,-0.9745071,-0.7182343,1.5636555,0.7719568,0.631049,-1.3498366,-0.52019393,-0.6047162,-0.13586414,-0.2358129,-0.80931056,-0.9469128,0.44872534,-0.91498065,-0.6854077,-0.91066974,0.28752863,-0.5745589,-1.5037334,-0.80609,-1.4320272,-0.41884828,1.774038,0.35971868,-0.7548775,-0.09930043,-0.040050924,1.0461293,-1.2154377,0.7275145,-0.98766994,-0.5646402,-0.54503065,1.1901983,1.5987864,1.4495518,-0.46265346,0.74340045,-0.19886367,0.87814873,-0.8163319,-0.1305489,1.0651629,1.4044882,1.2668408,0.9403844,-0.51505905,-0.06662994,-0.19255836,-0.38541695,0.03777989,-1.9167957,1.4210529,-0.41350427,-0.20720127,1.6152704
882a100103fffff,-0.20218799,1.8472764,0.15742488,1.5262743,0.48919734,0.8106723,-0.87490827,-1.0847381,-0.878596,-0.2029993,0.7340289,0.65714985,-0.015485212,-1.5559791,0.19315529,0.14050367,0.767183,0.09280218,-1.408153,-1.235738,0.03255986,-1.1586764,-0.29848942,-0.07161941,0.018037869,-0.6374198,-1.8130845,-0.45036206,-1.3672715,-0.30926853,1.6510087,-0.8582673,-0.81363183,0.36889902,-0.64010316,1.2745563,-0.29193938,1.3968191,-1.1681303,-0.49097937,0.27646554,0.75052834,1.3972945,0.5927388,0.39343628,0.083309144,-0.18704066,0.7833149,-0.55008346,-0.9066272,0.57129997,0.94890726,1.1071565,0.010585192,-0.15712836,0.93065405,0.016843373,-1.2551904,0.077098705,-1.4095236,1.7550465,0.063579105,-0.5019839,0.70923764
882a100105fffff,0.29203194,1.0483245,0.35601267,0.8046574,0.26152828,0.91962796,0.16684432,-0.676163,-0.6793164,0.2778335,0.37569785,0.36697298,1.1628195,-0.6995281,0.7280236,0.13993892,0.2674423,-0.9192522,-1.5597316,-1.3814037,1.0859419,-1.792211,0.37097466,-0.062243443,0.16000906,0.62380034,-1.1187062,-0.7182903,-1.3835571,-0.18446313,0.25310358,0.3464365,-0.36188275,-1.3759891,-0.19021198,1.2552757,0.13192084,-0.4263209,-1.336337,-0.6083442,-0.41360432,0.7132817,0.7942501,0.009490981,-0.13980138,0.18525377,-0.11041946,0.28060597,0.7314372,-0.46724388,1.9703287,1.3012267,0.8213122,-0.5092544,-1.4133694,0.27448618,-0.8683226,-1.3333311,0.5577606,-0.2745308,0.5627371,-0.2126134,0.5563785,0.83956176
882a100107fffff,0.015544644,0.95284414,0.3715305,0.7407377,-0.0046552224,1.4699272,0.3306892,-0.7753313,-1.1513355,0.23826933,0.5763479,0.2952785,1.1107543,-0.6457447,0.77101105,-0.48497954,-0.18153922,-1.1241349,-1.541647,-1.4201938,0.89548856,-1.8319174,0.025730303,-0.1735419,0.29465815,0.5646576,-1.1788175,-0.7806425,-1.4915991,0.2317227,0.8902443,0.3629651,-0.42715466,-1.2293292,-0.08146461,1.050778,-0.31450647,-0.36606357,-1.5104854,-0.5326068,-0.75537086,0.923649,1.274324,0.048474014,-0.28618163,0.45604667,-0.19792764,0.117442966,0.84015876,-0.3991531,2.4199698,1.3379432,1.0633049,-0.2575106,-1.1616046,-0.002770443,-0.8145909,-0.92984,0.5092369,-0.79386026,0.5227047,-0.17831126,0.6270858,1.4673423
882a100109fffff,-0.93006665,0.41173896,0.4981823,1.1173313,-0.8163556,1.2152039,0.070931025,-0.69271106,-0.33973855,-0.87723875,1.4874576,0.39749956,0.10244432,-0.8656711,-0.69242835,-1.236323,-0.6080999,-0.096708134,-0.39175066,-0.857988,-0.20244607,-0.22806098,-1.3343107,-0.8519613,0.21798775,-0.5130496,-0.5210438,-0.732398,-1.5462433,-0.023816837,1.851108,0.06808046,-0.16577604,1.0146309,0.34872898,0.44566917,-1.5293812,0.3467649,-0.94931084,-0.28273618,-0.6695958,1.4358453,1.365393,1.7417009,-0.7999423,0.8058981,-0.20118444,0.7651435,-1.2384677,-0.2520624,0.68456894,0.4469641,1.1231636,1.0266062,-0.10915835,-0.507422,0.6005937,0.39791465,0.13054876,-2.1565874,1.2155176,-0.113407195,0.012519078,1.7813224
882a10010bfffff,-0.56273377,0.74713886,0.22816567,0.6567376,-0.6059168,1.2158818,0.055952564,-0.78699785,-0.3659302,-0.3697987,0.7694867,0.22437412,-0.015422975,-0.3660055,-0.20860277,-1.0457982,-0.7095984,-0.2990385,-0.7143806,-0.94483495,-0.6508014,-0.186407,-1.3756083,-0.4753318,0.26472908,-0.22665109,-0.36499268,-0.6883177,-1.3352027,0.7180973,1.848303,-0.23269325,0.09425615,1.558332,-0.023683421,0.008405659,-1.2896044,0.4420218,-1.1175705,-0.27317268,-0.7211438,1.12618,1.6047317,1.008376,-0.40071133,0.64891255,0.01318445,-0.06967894,-0.7383411,-0.20123139,1.0857815,0.12047455,1.015057,0.5544484,0.033904567,-0.7152879,0.55806285,0.28553647,0.11665679,-1.9423103,0.9652611,0.1211742,0.061041445,1.6621286
882a10010dfffff,-0.48497036,0.39866203,1.0665283,1.5035143,0.6025023,1.0378873,-0.5778006,-0.9411353,-1.9041275,-1.0018451,1.26703,1.7311025,-0.255951,-0.8937974,-0.7948219,0.060830276,-0.67656285,-0.76665455,-0.91296643,-0.5910739,0.4286884,-0.39780372,0.053660985,-1.1694976,1.0443983,-0.08548978,-1.4259117,-0.7403325,-1.3069855,-0.06567468,1.5099784,1.5109102,-0.10516565,-0.9363415,-0.54249424,0.86417323,-1.4904768,1.0654205,-1.0704087,-0.51418537,-1.142603,0.6405137,1.6267297,0.2938126,0.3081965,0.8494733,0.029249819,-0.017444897,-0.069471866,0.78691196,1.0253552,1.925337,1.5617771,1.0930007,-0.9996985,-0.5200439,-0.8610657,-0.7482259,-0.33520487,-1.5382278,1.3173271,-1.0126253,-0.5625377,1.7339815
882a100111fffff,0.09699724,1.7822587,-0.55870306,0.5498999,0.11496743,0.83329374,-0.65350515,0.18171737,-1.0099559,-0.29643604,0.46082252,1.3438752,1.0139552,-0.96528447,0.67202604,-0.024251541,1.3806785,-0.047367614,-1.5790017,-1.6364241,0.47808537,-1.2945052,-0.14715497,0.72491175,-0.90278053,-0.27096838,-1.1134045,0.28022137,-1.2982339,-1.3372868,-0.19797029,-0.7232327,-1.0233752,-0.23095995,-0.04467327,1.0705988,0.93472034,0.20722294,-0.78651124,0.060880356,0.91352654,0.9074492,0.38059148,0.1509619,-0.37788197,-0.8552788,-0.23205106,1.0564497,-0.5752709,-0.9843265,0.7515493,1.0943887,-0.23261043,0.3229721,-0.28177255,1.4988838,0.034598056,-1.1251148,0.8338583,-0.053409148,1.4609461,-0.39549658,-0.25932428,-0.28489527
882a100113fffff,-0.19470474,0.46772385,0.046212148,1.3315599,0.5443766,-0.013674622,-0.87531227,-0.7358925,-0.36736682,0.1888337,1.183646,0.54538566,1.6542476,-1.5396423,0.061386213,0.47668552,1.2658648,0.2459813,-0.6653792,-0.64396286,1.2677212,-1.6874219,0.24038534,-0.23132695,-0.4545347,-0.550259,-1.4832025,-0.37432218,-0.6266809,-1.4056503,0.02279397,0.4592877,-1.5112315,-1.3762844,-0.052814025,1.4292938,0.32032105,0.28329942,-0.13798462,-0.53180856,0.28500602,0.6035291,0.59618735,0.93923664,-0.35020187,-0.2593917,-0.6316574,1.4990213,0.20161004,-0.5114585,0.9259057,1.5150578,0.4382382,0.18348464,-0.70085293,1.1013123,-0.9910684,-1.1426295,-0.022733161,-0.4110071,0.9281836,-0.6650682,-0.09428341,-0.10755137
882a100115fffff,-0.29753235,2.0590029,-0.39598933,1.0245252,-0.102258556,1.0688695,-0.66990423,-0.480622,-1.0089616,-0.45881763,0.7162099,0.7503543,0.30281737,-1.3509398,0.54371667,-0.3208224,1.0700531,0.19099745,-1.4720808,-1.6294492,0.011572011,-1.197237,-0.6549306,0.4705295,-0.67209107,-0.6861317,-1.5161875,-0.0143910395,-1.5771575,-0.6841964,1.1902502,-1.2221357,-0.997064,0.5748882,-0.22736079,1.1290767,0.2199675,0.9267086,-1.1331481,-0.07293114,0.75671357,1.2270344,1.0023514,0.6527986,-0.17417145,-0.4439392,-0.41218036,1.1355615,-0.7085376,-1.1728843,0.66638476,0.9499417,0.4862475,0.32923076,0.105666436,1.3658878,0.2921168,-0.8942283,0.49818787,-1.155213,1.7718561,0.065660976,-0.45435214,0.49096242
882a100117fffff,-0.64628947,0.4681174,-0.08449957,0.8209287,0.63029325,-0.081862584,-1.0814084,-1.2010319,-0.6218513,-0.4599328,0.8646844,0.59309316,-0.10443848,-0.88576406,-0.5302803,0.5212578,-0.0748028,0.6714245,0.15314868,0.11972362,-0.84658235,0.22602122,-0.7995847,-0.48200095,0.037447866,-1.2489444,-0.7625468,-0.40190387,-0.051380817,0.10418427,1.4429967,0.09591543,-0.4941499,1.3427495,-0.9159154,0.033058953,-0.7291931,1.9709193,-0.087505765,-0.02914779,-0.4019409,0.39232653,1.9617536,0.58442605,0.7081862,-0.023815874,-0.5177557,0.029092265,-0.49942583,0.6136778,-0.19012302,0.5494151,0.98555106,1.3505954,0.8082035,-0.30686045,-0.15211706,-0.27683845,-1.0566223,-1.63925,1.1174483,-0.70274764,-1.1769613,0.3814633
882a100119fffff,-0.22054769,1.0874168,-0.64490324,0.53761643,-0.21641672,0.24794136,-0.31231377,0.2593551,0.097691216,-0.11825447,0.78936183,0.32990518,1.8013204,-1.1302553,0.54895073,-0.38252568,1.6284858,0.44115904,-0.6872048,-1.3367424,1.015846,-1.4519817,-0.46098676,0.7544557,-1.4945867,-0.5205566,-0.7906042,0.29583377,-0.8886506,-1.6413616,-0.39266193,-0.77601784,-1.3357583,-0.3745239,0.77236134,1.0285857,1.0572188,-0.43009686,-0.1574631,-0.030944036,1.2321134,0.90126646,-0.3238789,1.0769569,-1.1356097,-0.96945727,-0.69237924,1.8743516,-0.5367321,-1.3901225,0.7617034,0.5862866,-0.5760971,-0.121018104,-0.2280358,1.6363604,0.019592581,-0.56469494,0.84283686,0.086081065,0.8875229,-0.10361068,0.098268196,-0.42885423
882a10011bfffff,-0.46571404,0.98946255,-0.1022834,1.2532796,0.7210604,0.26336804,-0.6778994,-1.2051008,-1.0525665,-0.17497447,1.1814034,0.42158842,1.0345718,-1.3210262,0.47343826,0.6738369,0.73356175,-0.1546658,-0.6990769,-0.4721914,0.80618197,-1.3611422,0.3074072,-0.19087929,-0.049513124,-0.4421684,-1.3918605,-0.38068372,-0.8285837,-0.8738569,0.3515901,0.62484515,-0.9632374,-1.2921093,-0.46814886,1.3998878,0.1602197,0.76344764,-0.65294784,-0.25023234,-0.25431442,0.6271542,1.1506339,0.07603027,0.3779183,-0.43196157,-0.7403478,0.76081634,0.7345067,0.04353595,1.0542696,1.3056188,0.9564366,0.6698368,-0.37360567,0.7628762,-1.1831071,-1.2039075,-0.3611306,-0.9566164,1.0587468,-0.72232646,-0.48491025,0.3938594
882a10011dfffff,-0.15846063,2.0742474,-0.121050656,1.3989787,0.34192488,0.90039074,-0.9946415,-0.59513247,-0.88669205,-0.56251425,0.6165426,1.1144791,-0.41399333,-1.3919797,0.08974137,-0.12964685,1.03055,0.40383223,-1.510291,-1.478381,-0.4514602,-0.48675013,-0.6442313,0.16514386,-0.35031667,-0.8302666,-1.5366796,-0.15101826,-1.5915657,-0.5635829,1.3502175,-1.3050827,-0.6847027,1.1661253,-0.49220634,1.1041822,-0.072147414,1.4596568,-1.1077683,-0.09362791,0.75185764,0.8809158,1.1791806,0.79804933,0.20800325,-0.19866568,-0.059226085,0.8632277,-1.5085421,-1.0480418,-0.016268564,0.5854301,0.53952426,0.4386942,0.25739405,1.0322506,0.62237144,-1.0767928,0.3595866,-1.3557347,2.1593134,0.11426331,-0.7217743,0.3800554
882a100121fffff,0.74558634,0.7648733,0.26053798,-0.1552605,-0.02839531,1.0084014,0.9758203,-0.62263834,-0.12799615,1.3077986,-0.62395394,-0.68763167,1.4032974,0.24709679,1.3729908,-0.18062797,-0.35057023,-1.5962256,-1.8441929,-1.4378835,0.8908508,-2.0690064,0.3490516,0.23131794,0.22509311,1.389081,-0.5341791,-0.9391559,-0.9748363,1.0295398,0.07880894,-0.08014845,-0.02530015,-0.9878994,-0.34522775,0.7327462,0.36469522,-1.0817145,-1.4664941,-0.771356,-0.77677745,0.4030648,1.0978341,-0.6130417,0.008870316,0.47405234,0.25889796,-0.7163329,1.7002523,-0.58414316,2.66818,0.7039271,0.9491318,-1.3871893,-1.4492685,-0.33813667,-1.0048214,-1.1142304,0.589305,0.36605704,-0.6186252,0.44609824,1.4067636,0.8403195
882a100123fffff,1.1837239,0.8356877,0.20616634,-0.40498358,0.016654124,1.1716895,1.3330069,-0.22160591,0.039729185,1.4373349,-1.128766,-0.17958827,0.47868863,0.81608605,1.3633585,-0.22757183,-0.5447896,-1.7217896,-1.8412118,-1.4111285,0.4841828,-1.4890898,0.50209475,0.38727245,0.57268107,1.8565418,0.23270053,-0.876866,-1.2164673,1.0546193,-0.5170379,-0.22881193,0.7588097,-0.582107,-0.3398426,0.57131606,0.40974557,-1.412561,-1.679942,-0.61807024,-0.8816609,0.15445656,0.62837934,-1.1276749,0.085148744,0.51860213,0.6017186,-1.1790015,1.4329013,-0.6491006,2.1505327,0.16859014,0.60257643,-1.6447793,-1.6409982,-0.54723006,-0.48779935,-1.1761099,0.95281494,0.68292034,-0.5281286,0.5306883,1.4144703,0.6038168
882a100125fffff,0.8205136,1.0705111,-0.27658892,-0.64420664,-0.56109095,1.2347072,1.0297136,0.30566728,-0.15859808,0.8887619,-0.6657184,0.33796588,0.65297556,0.54571956,1.3550763,-0.38472897,0.14080209,-1.2794396,-1.5249294,-1.5913321,0.5685659,-1.5746282,0.4887929,0.898212,-0.11588832,1.3565325,0.49411178,-0.14145337,-1.1923703,0.25055543,-0.88991106,-0.38265178,0.35612282,-0.7210565,-0.09113597,0.3102431,0.7497408,-1.4350631,-1.1816251,-0.016769975,-0.3289496,0.7166669,0.08929207,-1.008563,-0.38752905,-0.3001928,0.12673454,-0.46982676,1.2478338,-0.92825526,1.9435344,0.59609455,0.015248825,-1.2134911,-1.4797443,0.28926253,-0.34709692,-0.8117853,1.1103534,0.8204622,-0.27039352,0.013856089,1.0226083,0.27671242
882a100127fffff,0.8281967,0.9355663,-0.3305477,-0.58317685,-0.4826644,1.0213537,1.4754326,-0.17909317,0.29188704,1.5686674,-0.8541609,-0.90114,0.90874785,0.7817704,1.7659729,-0.6011313,-0.16988431,-1.4571934,-1.2948418,-1.2833954,0.5627969,-1.8451217,0.30292758,0.8629033,0.09141499,1.5819237,0.2816335,-0.58749104,-1.1063465,0.9770608,-0.69531906,-0.5379045,0.3869841,-0.6440034,-0.005223565,0.4085672,0.7379482,-1.6123356,-1.2626163,-0.37322316,-0.66888493,0.48038596,0.40640926,-0.98926514,-0.32919943,-0.03435372,0.09772047,-0.73845625,1.8260958,-1.0939598,2.4441395,-0.09653574,0.4704225,-1.7521671,-1.266358,0.0043037115,-0.5895178,-0.82820225,0.8931459,0.6438879,-0.86287045,0.7192475,1.5637339,0.51740354
882a100129fffff,0.6205617,0.78166455,-0.36478034,-0.41501617,-0.471898,0.9947978,1.3957729,-0.5842921,0.39140585,1.5808554,-0.5761985,-1.4339664,1.2510012,0.50182956,1.853241,-0.51978403,-0.08517315,-1.3658924,-1.2188256,-1.0614097,0.74963707,-2.0525503,0.2922995,0.7757109,0.17398487,1.4015185,0.028747512,-0.6770882,-0.9944646,1.1576074,-0.4596447,-0.44230697,0.12720855,-0.84736794,-0.09933028,0.5153928,0.68502825,-1.5705181,-1.2176654,-0.39502874,-0.74775904,0.59855586,0.6503119,-0.73626566,-0.2609781,-0.10663843,-0.12367564,-0.63190013,1.9746752,-1.0152909,2.7878819,-0.08320805,0.67587817,-1.6788412,-1.1829668,-0.0273054,-0.9037718,-0.87332124,0.65699095,0.35952792,-0.92929024,0.7269564,1.5775088,0.66947407
882a10012bfffff,1.1192822,0.8873779,-0.028885452,-0.39761212,0.22810863,0.82735115,1.3572515,-0.44674984,0.18094479,1.4191672,-1.104818,-0.49021268,0.4784544,0.8404775,1.5738348,0.19718134,-0.39500356,-1.6602596,-1.6128038,-1.0548295,0.50972533,-1.4559069,0.72962457,0.47427666,0.5949073,1.8710343,0.34736183,-0.8286671,-1.060662,1.0415955,-0.84986687,-0.08489506,0.8156842,-0.94874,-0.45619768,0.670285,0.6826752,-1.3499626,-1.575681,-0.47066012,-0.9167897,0.053208865,0.5820684,-1.3958037,0.35963663,0.17554048,0.3083544,-1.1948053,1.8034666,-0.44496298,2.104163,-0.0020476342,0.6550699,-1.5948077,-1.4994396,-0.45723692,-0.77465266,-1.380087,0.7079759,0.7111373,-0.7048365,0.4419276,1.3012868,0.37869516
882a10012dfffff,0.30419356,0.43072796,-0.6171338,0.013193796,-0.49580404,0.14993317,0.753521,-0.8576274,0.9219191,1.0813198,0.25516334,-1.8758551,2.075667,-0.37548786,1.4093364,-0.035141945,0.5024939,-0.50236785,-0.5567271,-0.6031927,1.0251786,-1.9838336,0.09356575,0.46277687,-0.5211045,0.6347154,0.082229696,-0.6436484,-0.551605,0.056651846,-0.6428624,-0.15400055,-0.6053459,-0.7946804,-0.17564459,0.6087485,0.636326,-1.258164,-0.5643659,-0.38933483,-0.4349034,0.7623413,0.71771985,0.31732264,-0.47358254,-0.3337109,-0.434207,0.35336357,1.7062118,-0.85213995,2.2886412,0.027794093,0.5614231,-1.002747,-0.8117852,0.3098635,-0.889396,-0.46165743,0.29399824,0.033567905,-0.78750217,0.39410233,1.212503,0.08247218
882a100131fffff,1.3622614,0.30708644,-0.3121167,0.10709993,0.062536515,-0.6016296,0.9593721,-0.72607833,2.1442266,2.019737,-0.7531156,-2.5690603,1.2051895,-0.021066397,1.3246882,0.8200345,0.52028847,-0.36462504,-1.1203864,-0.41430315,0.43680263,-1.6555389,0.49878338,0.5736721,-0.06676922,0.88536316,0.6502483,-1.1366526,-0.26757586,0.3802426,-1.1693712,-0.76981515,0.07646215,0.14172585,-0.9362476,0.8657446,0.7604435,-1.3238314,-0.69924235,-1.1764464,-0.20783019,0.027414868,0.48223206,0.13598144,0.16990831,0.09758789,0.3980321,-0.17026572,1.160522,-1.3344193,1.4631785,-1.1810046,0.52808934,-1.788349,-1.008712,0.21466112,-0.2843944,-1.1384082,0.23546465,0.8339672,-0.8600267,1.3108869,1.5277786,-0.78465444
882a100133fffff,0.6742113,0.15034395,0.74723905,0.12940902,-0.057316747,1.2121873,0.6439353,-0.1662174,-0.45703176,0.7964689,-0.2908459,0.6929129,0.89352036,0.23517232,0.123475224,-0.510847,-0.88503695,-1.3699522,-1.7083927,-1.4351621,0.54075414,-1.3276112,0.15028012,-0.36566922,0.5217579,1.3121634,-0.30925688,-0.8888817,-1.0352664,0.5664914,0.261022,0.7396918,0.24093777,-0.6125842,-0.31300768,0.45570722,-0.5330291,-0.92975944,-1.279047,-0.7993165,-1.144853,0.5042981,0.9971664,0.13314307,-0.32316577,1.0481951,0.5349128,-0.6124641,0.6764618,-0.059206884,2.0706294,1.2180337,0.6763298,-0.43387967,-1.7530788,-0.8803723,-0.5159374,-0.73749113,0.6978484,-0.0370444,0.072878174,-0.21900012,0.97407687,1.0149398
882a100135fffff,1.2829425,1.0340598,0.5961494,0.057978876,0.49949828,1.1910712,0.9150145,-0.1466433,-0.34939694,0.8832665,-0.9364895,0.87027395,0.20672926,0.4267874,0.7973463,0.35041383,-0.36078462,-1.6468453,-2.3387575,-1.566471,0.6156213,-1.3053705,0.9401918,0.20892383,0.8608738,1.7774622,-0.138957,-0.7820865,-1.444966,0.47834995,-0.6282416,0.14102831,0.8057097,-0.9967531,-0.6140363,1.0459715,0.43541726,-1.1186503,-1.8490587,-0.7459298,-0.7786405,0.020076295,0.42550275,-1.0061632,0.3223275,0.5897099,0.7586013,-1.0501919,0.7010687,-0.5310156,1.6204963,0.8636753,0.5500639,-1.2056738,-1.951771,-0.3544369,-0.49832678,-1.8172408,1.0658677,0.78762275,0.19190355,0.0933932,1.0653065,0.38313156
882a100137fffff,1.4668478,1.054352,0.8163024,0.24384098,0.3872309,0.831063,0.63857347,-0.22332321,0.073670834,1.328864,-1.2634025,0.3963687,0.064023666,0.26605833,0.57064605,0.35366946,-0.36404854,-1.4287744,-2.383962,-1.6709131,0.28664526,-1.338372,0.56686,-0.009648504,0.7359603,1.4464356,-0.36198485,-1.0119361,-1.1071762,0.79686797,0.26385865,-0.5380114,0.6042431,0.052810714,-0.98025113,0.6971216,0.02684174,-0.5299753,-1.6268387,-1.1748356,-0.5788046,-0.1824807,0.90210056,-0.6161185,0.42525244,1.0176935,1.1364757,-1.0843548,0.53045404,-0.80856204,1.3394723,0.7214064,0.7936236,-1.6872095,-1.6921083,-0.3645703,-0.23585151,-1.5453521,0.805145,0.6822833,0.15623719,0.59352344,1.1061478,0.314882
882a100139fffff,0.17755371,1.0976794,0.41258934,0.8862819,-0.11247983,1.1353331,0.49216336,-1.1177472,-0.31138876,0.77872455,0.26625314,-0.8252836,1.1166383,-0.7719638,0.89975107,-0.5170948,-0.11204641,-0.9616605,-1.8154844,-1.3678775,0.5870624,-2.082318,-0.2764406,-0.20895413,0.24830942,0.48571578,-1.2663109,-1.188521,-1.4016638,0.57182354,1.3836343,-0.39807558,-0.5028593,-0.42732638,-0.33621433,1.1826794,-0.3627187,-0.3279143,-1.5862556,-1.0846257,-0.68320125,0.85419726,1.5106426,0.54270875,-0.28070885,0.84678656,0.06246616,0.24081214,0.6564623,-0.981229,2.382896,0.806406,1.3791506,-0.8353522,-0.9438323,0.12203916,-0.4467397,-0.8840527,0.49609905,-0.9939158,0.4590676,0.6087737,1.022693,1.4304565
882a10013bfffff,-0.71151984,0.9389153,-0.16928041,0.9859586,0.11055432,0.479388,-0.32511598,-1.8326993,-0.30668578,0.29506785,0.9470371,-0.9933056,0.36000076,-1.0072927,0.36682603,-0.0898544,-0.20547444,0.070125274,-0.5665181,-0.0013483167,-0.49576032,-0.80019647,-0.8644809,-0.456319,0.33493754,-0.78802747,-1.0385449,-0.87635386,-0.7257412,0.7083367,1.9189353,-0.16030423,-0.56758034,0.9108468,-0.925653,0.53353035,-0.81914264,1.2202827,-0.81591094,-0.50239867,-0.88243306,0.7537347,2.2092767,0.6330386,0.5861459,0.30330396,-0.50946313,0.030696481,0.5003934,-0.12505554,1.2779254,0.17058662,1.5995312,0.52990365,0.6493392,-0.20264351,-0.37126198,-0.37982556,-0.73542446,-2.2116039,0.8899611,0.1465314,-0.25971103,1.1809901
882a10013dfffff,1.078281,0.54542494,-0.12713718,0.18189801,-0.12758651,-0.14373568,0.88624215,-1.0597419,1.6574118,1.6783642,-0.58384913,-2.3984869,0.9491327,-0.12788391,1.1914662,0.60519975,-0.015713796,-0.43281436,-1.3426571,-0.7128751,0.3008182,-1.5268528,-0.0013593986,0.30639648,0.109476246,0.79589987,0.3054237,-1.198725,-0.593248,0.7902654,-0.18306798,-0.7141824,0.1038629,0.44052207,-0.7551635,0.70519215,0.31799707,-0.96898925,-1.0458547,-1.0339112,-0.51337194,0.27617934,1.1367477,0.11701559,0.2196375,0.33951408,0.21077396,-0.47299922,1.2887106,-1.1528336,1.7538341,-0.7451256,0.910042,-1.5174347,-0.83876306,-0.21953318,-0.2267443,-0.7650819,0.22010949,0.1635958,-0.6642979,1.1341462,1.3308448,-0.021902736
882a100141fffff,-1.1047186,-0.041389182,0.28846723,1.1778522,-0.50298095,0.2982584,-0.4843746,-1.1552768,0.26930544,-0.8429283,1.579559,0.10963864,-0.84035796,-0.9727055,-1.1813102,-0.6617801,-0.422794,0.93659747,0.7022051,0.090684064,-0.80830914,0.62008506,-1.6038566,-0.87575066,0.33955425,-1.2192448,-0.24667026,-0.5565746,-0.6673839,0.007972177,1.9608558,-0.07441102,-0.19442219,1.9730313,-0.20400573,-0.037946023,-1.636389,1.347906,-0.08019113,-0.1025943,-0.46287805,1.0636076,1.585749,1.7196771,-0.30143702,0.49129033,-0.42249158,0.6148143,-1.2676845,-0.009514239,-0.4132895,-0.15586765,1.1605929,1.2346668,0.7852018,-0.55581665,0.6673218,0.5833654,-0.6756438,-2.4005334,1.1936749,-0.13595161,-0.6902826,1.1567827
882a100143fffff,-0.7305048,0.4187394,0.20023029,1.2877617,-0.2791376,0.044537533,-0.25237224,-1.6267624,0.87293935,0.1271383,1.1879424,-1.1397791,0.38194704,-1.2292978,-0.48414502,-0.34111914,-0.20214972,0.64961535,0.021491604,-0.14614886,-0.24161732,-0.5011872,-1.3132316,-0.8335854,0.107563496,-0.9285939,-0.60565203,-1.0545985,-0.63916796,0.10002214,1.8065724,-0.44718623,-0.5810004,1.4223365,-0.37766364,0.5698018,-1.1555732,0.9081167,-0.37873012,-0.78408444,-0.4418854,0.8298346,1.8080201,1.9142593,-0.11913891,0.64800626,-0.39075306,0.7931405,-0.60501415,-0.51801914,0.41669887,-0.26209307,1.3900256,0.5897565,0.40909594,-0.32826352,0.31317782,0.08314714,-0.581934,-2.1300063,0.91272384,0.35081896,0.08299918,0.8833697
882a100145fffff,-0.5657153,0.3736828,0.4737093,0.7909932,0.44182318,0.66136897,-0.89940476,-0.5659616,-1.5994735,-0.617201,0.955846,1.6928608,0.920288,-0.62863827,-0.5015913,-0.1068954,-0.4439507,-0.42457134,-0.572619,-0.7427745,0.20433578,-0.58489585,-0.44587794,-0.7122064,0.2036905,-0.4729693,-1.4302622,-0.42647746,-0.563608,0.02494118,1.452879,1.3359655,-0.53237987,-0.2807484,-0.32265684,0.17456266,-1.0183791,1.0253656,-0.3615564,-0.30880138,-0.84889597,0.5535573,1.8059585,0.33310175,-0.15038207,0.34045923,-0.16309378,-0.17227918,0.07908534,0.85433483,1.2863498,1.9390169,0.88700044,0.8902587,-0.6212965,-0.524996,-0.8380306,-0.16861048,-0.36868626,-1.1039634,0.77455467,-1.1172241,-0.6720427,1.2849022
882a100147fffff,-0.59722376,-0.12742947,0.9082533,1.3759291,0.5666867,0.06384989,-0.8025873,-1.3648639,-0.675826,-0.45722365,1.1218017,0.6790594,-0.21181203,-0.83012664,-1.1449811,0.08132718,-0.8566151,-0.009154007,0.081659496,0.09990008,-0.11257313,-0.12751228,-0.655927,-1.4336677,0.8184828,-0.6847531,-1.2907686,-0.9742746,-0.20094071,0.28466138,2.0336695,1.0101409,-0.3044386,0.41245282,-0.746938,0.26390728,-1.6936929,1.6641426,-0.17916913,-0.80359864,-1.0741112,0.2853393,2.2226145,0.8548672,0.42205998,1.025631,-0.004195555,-0.09343765,-0.22034568,0.85022014,0.32792836,1.1854813,1.7140101,0.99492925,-0.13053976,-0.88878137,-0.68130213,-0.12448311,-1.0061622,-1.8214865,0.8798966,-0.580633,-0.719454,1.36474
882a10014bfffff,-1.0305811,0.8643124,-0.30351397,1.1922514,0.55640936,0.10965492,-1.3428366,-1.0423602,-1.2472805,-0.9507922,1.6352389,1.1167544,0.26425293,-1.5688825,-0.32484892,0.6175241,0.77835053,0.75345594,0.04790472,-0.10978446,-0.026114246,-0.3262781,-0.48224732,-0.1596447,-0.2050301,-1.525181,-1.4465888,0.04733548,-0.63155836,-0.97771025,1.064101,0.44085154,-1.087766,-0.048145544,-0.59143955,0.9285596,-0.32884726,1.8220993,-0.12203111,0.18825127,0.074201606,0.8598283,1.2233593,0.51825345,0.3141773,-0.5484207,-0.9309018,1.0254897,-0.24037847,0.20411614,-0.055359498,1.4372672,0.79007673,1.4023114,0.41987467,0.76305515,-0.524667,-0.645633,-0.657392,-1.5651872,1.5634304,-0.93663293,-1.3761555,0.3456998
882a10014dfffff,-0.8688714,0.18179514,0.20524357,1.0004715,0.5329271,0.06083921,-1.094094,-0.9216266,-0.921274,-0.8756417,1.3557944,1.3477235,-0.010128846,-0.8319149,-0.927417,0.22677436,-0.19679408,0.35781157,0.3001082,0.13928539,-0.18576317,0.18942027,-0.6812836,-0.79321694,0.3100473,-1.0100363,-0.86374515,-0.22234528,-0.32670364,-0.33794028,1.278067,1.0779283,-0.41558692,0.34717348,-0.4076611,0.081843466,-1.1264575,1.5546707,-0.018674126,-0.046231616,-0.5426674,0.49507573,1.5149112,0.61276174,0.20754321,0.05918025,-0.54403096,0.35542047,-0.29868954,0.8291274,0.17678358,1.203059,1.0120192,1.2482293,0.11396359,-0.33974943,-0.58419234,-0.15443172,-0.76189315,-1.5979549,1.0349449,-1.1303756,-1.1957071,0.8132294
882a100151fffff,0.8243016,-1.0080059,-0.12335159,0.6804293,-0.46989504,-0.77406496,0.88652116,-0.78379023,2.707317,1.681902,0.7559337,-2.7951205,1.5843672,-0.51791084,0.24003217,0.06854447,0.64572495,0.5607719,0.22808659,0.22096443,0.86740494,-1.1913638,0.0570449,-0.029285492,-0.11715278,0.31425962,1.4377267,-1.2190329,-0.21204755,-0.5961218,-1.7440454,0.1466953,-0.33424217,-0.17808977,-0.18551932,0.7650564,0.01618912,-1.8459924,0.10046382,-0.93646693,-0.2112237,0.5497287,-0.22864392,1.5379797,-0.80947775,0.22591752,-0.07124305,0.8392488,0.8014475,-1.3426136,1.0158278,-1.3985069,0.28588158,-0.70472676,-1.0676585,0.23114824,-0.2310409,-0.49353987,0.035344373,0.26493436,-0.96176136,1.0762128,1.6439444,-0.80666465
882a100153fffff,0.84740937,0.008529067,-0.4587724,0.2439173,-0.46648645,-0.22739808,1.2677412,-0.8002415,2.1859646,1.4634045,0.20523663,-2.923676,1.2666228,-0.17457218,1.4179624,0.12137251,0.5184384,-0.13237363,-0.5296994,-0.23741348,0.7371588,-1.5621117,0.25592446,0.58964396,-0.18061851,0.7230296,0.9795231,-1.0137984,-0.6835249,0.03561455,-1.4131079,-0.5538586,-0.086625196,-0.27797097,-0.33725035,0.96401197,0.5573661,-1.8968986,-0.693474,-0.739212,-0.28727967,0.68787336,0.019651843,0.6658892,-0.4177804,-0.14833605,-0.06433914,0.45107642,1.0782402,-1.4877095,1.5942577,-1.4904982,0.51050407,-1.2660493,-0.9446598,0.4520999,-0.16083775,-0.86942667,0.42047355,0.30916613,-0.88703567,1.3976101,1.7076733,-0.4087456
882a100155fffff,-0.82845515,0.17504276,0.39770898,0.7892229,-1.093661,1.2268171,0.5986992,-0.52267766,0.116464846,-0.86201,1.5538343,0.11369853,0.36848736,-0.5690212,-0.6794752,-1.3294252,-0.7924238,-0.16629669,-0.38610873,-0.7266101,-0.08328313,-0.10742142,-1.357672,-0.7356003,0.2823994,-0.12628686,0.26553002,-0.6790835,-1.6315317,-0.28086883,1.0301181,0.56240904,0.16923743,0.76299644,0.5086997,0.34971943,-1.3260955,-0.49661526,-1.0575153,-0.1568075,-0.87491035,1.4881984,0.96056646,1.6651418,-1.0537165,0.7460696,-0.21367277,0.6326906,-0.92680985,-0.27870747,0.94288194,-3.39313e-05,0.8882648,1.1475346,-0.21461895,-0.78393227,0.6908681,0.5847474,0.44581908,-2.012085,0.95189124,-0.20615093,0.37611294,1.5457714
882a100157fffff,-0.8078608,-0.055339918,-0.23750663,0.66722,-0.78932893,0.27594405,-0.12247061,-0.6300172,0.4337516,-0.39542645,1.5733614,-0.2701105,1.031295,-0.79526705,-0.60957986,-0.8438924,-0.10499789,0.46462688,0.5033415,-0.24903962,0.17679533,-0.244338,-1.4177327,-0.46325922,-0.36414763,-0.6419524,0.012086513,-0.47342384,-0.6873433,-0.6655248,0.6791173,0.39044455,-0.60979295,0.83411497,0.40503502,0.18724872,-0.8798999,-0.049546756,-0.12541752,-0.12395903,-0.3354587,1.2005444,0.9843199,1.8597794,-0.9711458,0.099413306,-0.6222341,1.1263193,-0.6484572,-0.14508277,0.67544156,0.012647801,0.5007405,1.1750497,0.16409817,-0.36734387,0.24869491,0.58897287,-0.101060644,-1.6545414,0.64189625,-0.30430523,0.055488486,0.7314478
882a100159fffff,1.070034,-0.37707326,-0.120893426,0.6758445,-0.565781,-0.44040987,1.6070142,-0.70400923,2.575321,0.72090745,0.62687314,-2.6776166,0.4036673,-0.41477025,0.65173435,0.95637184,0.4835136,0.16016571,-0.5137625,-0.0068504363,0.43899882,-0.76524174,0.30415404,0.12048042,0.18994029,0.62165296,2.0393434,-1.2185721,-0.9668627,-0.9642007,-1.8986464,-0.2575391,0.48809355,0.16713572,-0.5000408,1.3302933,0.13401744,-1.9413604,-0.9957124,-0.78101444,-0.28877172,0.8134991,-0.4480775,0.98586786,-0.5303324,0.30606428,0.4174863,0.6924212,0.2542549,-1.4377359,0.5081979,-1.8699782,0.41762343,-0.52444583,-1.1298584,0.1768032,0.57717896,-0.94392335,0.48437113,0.18669952,-0.37412822,1.2217858,1.543406,-0.82262635
882a10015bfffff,0.057205185,-0.36983913,-0.9238744,-0.14304799,-1.4674565,0.5266493,2.1031408,-0.0020124726,2.2205746,0.04605554,1.3343681,-2.780119,-0.23759297,0.3183691,1.1949257,-1.0558267,0.14909703,0.3808088,0.5812361,-0.030661726,0.053266354,-0.05677677,-0.3748793,0.9314121,-0.24715881,0.419188,2.8139951,-0.03092935,-1.5166303,-0.6601197,-1.8819438,-0.7596322,1.0197606,0.57273614,0.4899428,0.3697108,0.16525047,-2.384979,-0.64121646,0.6558051,-0.26827618,1.5498178,-1.5659744,0.6885819,-0.93985236,-0.73449665,-0.7561672,0.93939614,0.6749527,-1.5525904,0.19851728,-2.989629,0.055578202,-0.0738528,-0.07170695,0.5371626,0.997676,0.22216472,0.66510355,-0.26917455,-0.58575326,1.3059908,1.4507124,-0.3773984
882a10015dfffff,-0.44745025,-0.020040939,0.20659126,1.097305,-0.26846254,0.14809096,-0.3222484,-0.5958519,0.38214996,0.029666487,1.3923745,-0.033685245,2.2438145,-1.2269887,-0.36068636,-0.6275761,0.6325642,0.20131573,-0.4062474,-0.8235534,1.3938148,-1.4662317,-0.6818927,-0.5524696,-0.6782872,-0.39321694,-0.9100911,-0.60221636,-0.7875011,-1.1769203,0.27244768,0.6611644,-1.3835359,-0.73331314,0.7247157,0.8937591,-0.22716452,-0.5020157,-0.10295628,-0.626207,0.08878929,0.90226316,0.5823705,1.8911637,-1.2037758,0.23210177,-0.46117753,1.5235542,-0.11046461,-0.57093257,1.3663478,1.0906253,0.3672468,0.2673643,-0.77132905,0.38614705,-0.6102144,-0.14367495,0.29845288,-0.6307661,0.43772566,-0.3432036,0.5464581,0.35742167
882a100161fffff,-0.42886665,1.5243591,-0.477899,0.21389873,-0.28363097,1.9598838,0.4868175,-0.80663913,-1.6125823,-0.6433011,0.9133464,0.7653306,-0.33869687,-0.22832908,1.0824145,-0.42208782,-0.16818108,-0.93026036,-0.78001213,-0.60428417,0.27600002,-0.6889909,0.3156021,0.27273208,0.800469,0.7063091,0.055098694,0.071358405,-2.0548549,0.0546031,0.021878084,0.8557844,0.63620645,-1.3922935,-0.4533752,0.81590885,-0.16240321,-0.4482332,-1.7094513,0.63687867,-1.0805377,1.3088368,0.8701183,-1.1688294,0.32514197,-0.70863086,-0.7980243,-0.3498737,1.3552384,0.09668559,1.9829576,0.71673054,0.84955984,0.7598851,-0.68309575,-0.021470899,-0.7383078,-0.9741813,0.32616147,-1.3968915,0.93433934,-0.8001822,-0.1905047,1.4033152
882a100163fffff,-0.47965518,1.0476115,-0.9871473,-0.09870799,-0.8551326,1.5975282,1.0209886,-0.3646108,-0.7732306,-0.56227845,1.1850989,0.07851084,0.8518389,-0.12839718,1.3366164,-0.8630455,0.2947198,-0.7562376,-0.34590483,-0.7496854,0.98510927,-1.1098173,0.2710034,0.7133807,-0.1189656,0.7170066,0.50760835,0.25906065,-1.8395833,-0.6287683,-1.1213942,0.7889298,0.19917025,-1.8855553,0.44327694,0.8082396,0.5726284,-1.5449396,-1.1798013,0.86951256,-0.6534932,1.5924355,-0.1970485,-0.4919395,-0.60928667,-1.0656989,-1.1361988,0.531187,1.4157393,-0.3878251,2.1236274,0.37637672,0.18102697,0.5073392,-0.75923944,0.44692397,-0.73394483,-0.5229889,0.73522156,-0.6019932,0.22222888,-0.61218375,0.48057166,0.8647426
882a100165fffff,0.014215751,-0.45451075,-0.7929801,-0.010265686,-1.4794827,0.543579,2.1520944,-0.06329542,2.2746894,-0.048048284,1.4337859,-2.7583308,-0.40463656,0.27629918,1.1093793,-1.0804439,0.0734372,0.43752378,0.5965183,0.037224174,0.08798219,0.022857433,-0.42657506,0.7928637,-0.15587156,0.41094288,2.7707362,-0.09943282,-1.5783376,-0.6799191,-1.7845253,-0.67496574,1.0719246,0.6006596,0.53569055,0.3899284,0.022718832,-2.375753,-0.660761,0.6246238,-0.33860248,1.5547888,-1.5890443,0.76823306,-0.94929785,-0.5998697,-0.74477434,0.9964702,0.62892973,-1.5047207,0.10087209,-3.0150192,0.15304631,-0.05647418,-0.099781536,0.5237253,1.0053465,0.19944093,0.6343391,-0.37484783,-0.52773917,1.3060051,1.429074,-0.31450927
882a100167fffff,0.07753582,0.6030803,-0.85797393,-0.51680475,-1.3510815,1.0460298,1.6958286,-0.4703286,1.3011478,1.0846554,0.23743169,-2.30527,1.270774,0.45402104,1.765083,-1.3071477,-0.088021345,-0.70889056,-0.7443002,-0.793094,0.3243477,-1.4437029,-0.59200317,0.9341477,-0.20675595,0.89002633,0.9885838,-0.3377144,-1.4233099,0.8326019,-0.57789344,-0.7352484,0.285309,0.04317912,0.46154103,0.25379604,0.44642487,-2.123441,-1.0739536,0.21613309,-0.5041682,1.2593848,0.19328347,0.12643029,-0.83563787,-0.43673536,-0.49226126,-0.06873742,1.3748428,-1.4733769,2.488578,-1.2448817,0.2346204,-1.2377077,-0.43858787,0.041397747,-0.006742504,-0.038241327,0.86701226,-0.32261717,-0.78667974,1.1152166,1.7658354,0.64506984
882a100169fffff,-0.029793903,1.5066352,-0.7153577,-0.079450786,0.17734262,0.8129429,-0.02173095,-0.52384645,-1.1413858,0.114630096,0.33937186,0.66715544,0.75031924,-0.31517786,1.0953659,0.26976058,0.28584364,-0.66903734,-0.86281353,-0.7163008,0.41112113,-1.0987029,0.27193788,0.6005788,-0.017588552,0.42781022,-0.57207644,0.15873696,-1.1447924,-0.30300242,-0.22576578,0.64780223,-0.00884458,-1.0129386,-0.61944056,0.83438337,0.43179813,-0.16759703,-1.1169921,0.20489725,-0.48711213,0.7734375,1.0151402,-1.1247315,0.23150624,-0.97014767,-0.6075479,-0.039913293,1.5630058,0.04197698,1.757833,1.0617961,0.4307309,0.3122849,-0.6118321,0.23188932,-0.88592356,-1.0234739,0.26451707,-0.6242715,0.5724946,-0.805786,-0.29642904,0.4496663
882a10016bfffff,-0.37543494,0.714673,-0.07417383,0.6471337,0.17342381,0.9447303,0.28031746,-0.99475753,-1.1201782,-0.1721324,1.006481,0.45581096,0.9509615,-0.5550203,0.58094907,-0.10046699,-0.10565257,-0.89335704,-0.6781574,-0.48536903,1.0423661,-1.2611016,0.36840835,-0.28621832,0.4055919,0.46958393,-0.70236737,-0.3569209,-1.2739863,-0.31810778,0.05207318,1.3862032,-0.13525759,-1.8412215,-0.15696725,0.9936459,-0.20631832,-0.36127532,-1.0210531,-0.12749913,-0.9857499,0.77881885,1.0910039,-0.32947165,-0.0077955583,-0.2245151,-0.667982,0.16204704,1.5529956,0.26311576,2.1139936,1.3705168,0.9281544,0.4668849,-1.027589,-0.11647517,-1.4263959,-0.87702954,0.034195393,-0.94384384,0.43686044,-0.85353833,0.16110297,1.1004125
882a10016dfffff,-0.60829496,1.2640754,-0.61314124,-0.22928518,-0.6120096,2.229584,0.026657734,0.1368129,-2.8611102,-1.1192038,1.009573,1.5765842,0.539325,-0.16226664,1.0114973,-0.92184407,-0.03222036,-1.0841298,-0.863102,-1.2640625,0.21358,-0.96294856,-0.027858786,0.78353673,-0.07609161,0.22356294,-0.59107494,0.4910613,-1.5350795,-0.12396551,0.23872036,0.8264808,-0.27440417,-1.2636361,-0.12401156,0.38370377,0.015059032,-0.169743,-1.1592302,1.0443375,-0.6943803,1.6921583,0.82499677,-1.0499152,-0.39244774,-0.7857273,-0.69110996,-0.05492229,0.9150924,0.37389314,2.00514,1.7912354,0.34097558,1.2644703,-0.56072855,0.31650463,-0.8306113,-0.36504316,0.53680515,-0.82132107,0.8480409,-1.1633198,-0.44103566,1.4850737
882a100181fffff,-0.37346607,-0.1423781,-0.3897743,0.66352224,-0.2111023,0.1229785,-0.44083133,-0.8849625,0.4437669,0.61935675,1.2861944,-0.54913205,1.8753283,-1.1847599,0.007004729,-0.17059553,0.5013504,0.5297105,0.122935265,0.008544785,0.5647525,-1.0233886,-0.5414227,-0.31301123,-0.3123137,-0.59379774,-0.38365364,-0.585166,-0.3268393,-0.6484152,0.1815608,0.48824996,-1.1494317,0.0146874795,-0.22656558,0.52452445,-0.32485363,-0.21654148,0.024380758,-0.3699781,-0.4499385,0.85980433,0.98847747,1.6036214,-0.67051315,0.024276197,-0.55826217,0.9981666,0.058771357,-0.36039877,1.2567543,0.26326475,0.32778,0.4980087,-0.12530126,0.047213044,-0.30524513,-0.13306083,-0.25903788,-1.129938,0.32380238,-0.4437039,0.24362448,0.25057298
882a100185fffff,-0.1332555,0.012186041,0.4156855,1.4461093,0.474725,-0.4945146,-0.6322352,-1.658619,0.8429881,0.5587845,0.78174573,-0.54125243,0.12037935,-1.2086687,-0.8069507,0.53275484,-0.058901988,0.7027907,0.12844627,0.34036937,-0.043253858,-0.3160758,-0.52299714,-1.155038,0.5345169,-0.69393504,-0.56342936,-1.1811512,-0.049588405,-0.00050963653,1.2158037,0.23685607,-0.45090196,0.8956888,-0.97356164,0.50626427,-1.0932075,1.1762387,-0.056599494,-1.0269709,-0.6594317,0.077493995,1.6738131,1.468604,0.47601873,0.83355224,-0.10018447,0.35958984,-0.3225866,-0.03388253,0.16921917,-0.0025971425,1.3880663,0.2802131,0.0029328268,-0.484992,-0.22644635,-0.4539128,-0.9894372,-1.5362333,0.7017024,-0.09509671,-0.1714204,0.33925086
882a100187fffff,-0.34254515,0.26832128,0.5135167,1.0028182,-0.86604786,1.1309255,0.13319498,-0.4787687,0.4499776,-0.45310226,0.7866777,0.480804,-1.0108808,-0.65143293,-0.9780753,-1.1615908,-0.58486414,0.30871922,-0.36816776,-0.73993033,-0.83770055,0.553991,-1.3860221,-0.7933221,0.57245284,-0.255725,0.31594884,-0.6788659,-1.3177071,0.19282196,1.5164455,-0.6099217,0.41504008,2.4050589,0.02802275,-0.08598277,-1.5382956,0.39025462,-0.93132836,-0.16668361,-0.4511607,1.0266348,1.1403916,1.6526291,-0.5029446,0.9248974,0.28927675,0.26625398,-1.9740566,-0.5437265,-0.2827195,-0.72006124,0.7863244,0.47763902,0.27718988,-0.7258243,1.5462265,0.4699635,0.18656991,-1.9453516,1.2333425,0.18026915,0.08506992,1.1842257
882a100189fffff,-0.38007945,0.8905019,-0.6902234,0.13558595,-0.31474707,0.31255051,-0.45029962,-0.665766,0.48273367,0.29112262,0.40755934,-0.71691793,0.48300877,-0.6402545,0.2989093,-0.0154357795,0.140355,0.61274487,-0.14795241,-0.5266323,-1.060908,-0.24806076,-1.3123529,0.113572896,-0.46039864,-0.83943975,0.0033471724,-0.3650773,-0.2913883,0.24931523,1.1963153,-0.9330879,-0.32033,2.1880856,-0.7379395,-0.08728679,-0.4397302,0.84316343,-0.2830336,-0.0869632,0.069534026,0.7894231,1.5913633,0.9659496,0.051437996,-0.16402401,-0.22783998,0.1968997,-0.6213803,-0.58788997,0.19266714,-0.67764586,0.4318381,0.62403387,0.84162354,-0.34309512,0.7963286,0.07261558,-0.33015642,-1.4803033,0.6507324,0.21109402,-0.024120104,0.23802124
882a10018bfffff,-1.5737063,-0.082149886,0.029572165,1.0611454,-1.0012207,0.7655824,0.2781621,-1.2823979,0.08026495,-0.54371524,2.0813808,-0.91715705,0.69621444,-1.0111316,-0.252096,-1.2089231,-0.4833035,0.30711427,0.49709994,-0.04798393,0.114212334,-0.59101427,-1.5555648,-0.7996865,0.093340084,-0.90282017,-0.31257862,-0.7493118,-1.0448817,0.049967464,1.6322064,0.50466394,-0.613765,0.47537127,0.45593837,0.3619292,-1.353869,0.3117156,-0.3408956,-0.16839306,-0.8459156,1.4560847,1.2843326,1.7206907,-0.749464,0.45992187,-0.8669704,0.933632,0.020408291,-0.22031364,1.1397568,-0.12043585,1.4409245,1.1454681,0.37215486,-0.40388882,-0.1292204,0.7132223,-0.43483213,-2.409107,0.5363438,0.03569737,0.18651968,1.6960845
882a10018dfffff,-0.3665917,0.37327814,0.20878546,1.1717626,0.90818995,-0.3577666,-0.8642376,-1.5825938,-0.49437496,0.21938153,0.83674145,0.041053105,1.014338,-1.0804478,-0.2859654,0.8917467,0.08188002,0.1623083,-0.27663466,-0.0134420125,0.3479982,-0.94849366,-0.103050545,-0.6190886,0.02865683,-0.68925387,-1.4857825,-0.7540228,-0.038379814,-0.15981641,1.0089065,0.85251564,-0.9221592,-0.4648718,-0.8323557,0.67840403,-0.40890408,1.343709,-0.14671351,-0.7764062,-0.53782815,0.159254,1.8370745,0.45667163,0.64702713,0.20902209,-0.48334607,0.3785877,0.83561796,0.44730234,0.78911895,1.2511171,1.3065077,0.5161163,-0.19481248,-0.040201336,-1.2122359,-0.7455913,-0.9514309,-0.96416754,0.62296766,-0.63936037,-0.6461655,0.4494589
882a100193fffff,-0.20281653,1.6926721,-1.7824124,-0.7277612,-0.3670468,0.30010018,-0.4319789,0.7684825,-0.5630814,-0.0016186744,-0.09391017,0.15056776,1.2214388,-0.39268473,1.321204,-0.2733595,1.7226311,0.9185466,-0.12511949,-1.2544701,-0.16155456,-0.9493057,-0.7859034,1.9954373,-2.0591989,-0.981811,-0.5392042,1.1514882,-0.17128424,-0.83485585,-0.50917673,-1.4987048,-1.1460371,0.43767834,0.49578005,-0.13089548,1.8194563,0.30515334,0.29041672,1.0376776,1.7682709,0.99065906,-0.721173,-0.69556016,-0.55223554,-1.9879786,-1.3208212,1.3037872,0.5057177,-1.2174305,0.18608437,0.03351338,-0.99598694,-0.45103392,0.9962118,2.07703,0.24390797,-0.04431021,0.48890057,0.70134115,0.45575404,0.011235669,-0.40340677,-1.0176333
882a1001a1fffff,-0.41526958,-1.1232203,0.3427049,0.5480984,-0.91162646,0.5089173,1.3585945,-0.87363285,1.3334762,0.9647196,1.039658,-1.8524235,1.0293151,0.06646653,-0.30555862,-1.48107,-1.0105054,-0.26609918,0.15573566,0.17263998,0.2598814,-0.5793396,-1.3211648,-1.0161071,0.7639708,0.39038047,0.76824635,-1.3410028,-0.6985297,0.6590153,0.55099964,1.0047568,0.190551,0.36051115,0.6254847,0.13935117,-1.4408864,-1.3313702,-0.4110485,-0.7558324,-1.4053712,0.85208815,0.5732629,1.4672154,-1.0965475,1.2904944,-0.16713123,0.28662235,0.43389216,-0.37220857,1.8716488,-1.0738108,1.0023836,-0.18142112,-0.50949097,-1.211899,-0.017409408,0.5429723,-0.009830344,-1.5397707,-0.48463115,0.6085404,1.4320334,1.4718224
882a1001a3fffff,-1.0594181,-0.38924998,-0.648824,0.039816305,-1.5299032,1.0929785,1.6947496,-0.95609653,0.91923136,0.04671828,1.6603155,-2.3494136,0.5102315,0.17703442,0.6568964,-1.460718,-0.65142536,-0.13929842,0.50603545,0.4308034,-0.41501996,-0.16541189,-1.2710392,-0.021916416,0.2934183,0.05779199,1.6925163,-0.4917477,-1.4006542,0.4837439,0.07949829,0.3747817,0.5046181,0.7112558,0.5088623,0.017194461,-0.78604364,-1.4432325,-0.6971869,0.44239783,-1.4439831,1.656197,0.04314294,0.9970152,-0.8450724,0.0047876835,-0.8547368,0.33348292,0.9660899,-0.5856761,1.8306715,-1.9094833,0.8545879,0.5113671,0.3572266,-0.6889109,0.22812776,0.856658,0.0004148682,-2.0392556,-0.1810727,0.50435513,1.0744889,1.2529614
882a1001a5fffff,-0.019082544,-0.6175687,0.7898836,0.79321104,0.028075496,-0.33135515,0.39123246,-1.6351887,1.308644,1.4480673,0.3143561,-1.8857375,1.5925865,-0.42356852,-0.31277013,-0.30642092,-0.7928776,-0.22012644,-0.4223472,0.11395508,0.386161,-1.2174863,-0.6680039,-1.2081524,0.5568979,0.18711309,-0.3579599,-1.6787064,0.022847945,1.017735,1.2448157,0.72780997,-0.4175392,0.05474188,-0.4790234,0.19953653,-1.2138478,-0.21092288,-0.16447552,-1.5458403,-1.1792581,0.11482085,1.6407632,1.3783647,-0.21880305,1.420778,0.19317313,-0.114889234,1.0129074,-0.16596349,1.917111,-0.080359586,1.4962723,-0.76583785,-0.7494551,-1.0437143,-0.66479975,-0.05138679,-0.5818615,-1.115424,-0.5835767,0.6133103,1.3533444,0.9790398
882a1001a7fffff,0.1984531,-0.17952141,0.36929747,0.8403374,-0.042177074,0.20961986,0.91051465,-1.4891657,1.1876942,1.1984253,0.36101058,-1.8827387,2.2995331,-0.4223734,0.54943514,-0.6274474,-0.055275016,-0.559404,-1.066408,-0.27498332,1.0828915,-2.0335324,-0.2914616,-0.5643286,0.36130482,0.5789881,-0.66890955,-1.6238767,-0.7751444,0.60186034,0.21423885,0.55862993,-0.6791399,-0.92376244,0.103803545,1.1614258,-0.15528907,-1.3933072,-0.84012944,-1.6215174,-0.9580206,0.5065434,1.0764433,1.2054391,-0.6875718,1.0065331,0.0009877748,0.30343774,0.9412969,-0.85320216,2.7454941,0.26221478,1.2339412,-1.1643877,-1.2570628,-0.28671756,-1.0612382,-0.77421826,0.24973804,-0.4077634,-0.46663868,0.8162738,1.8178457,0.8742867
882a1001a9fffff,-0.25334907,-0.6843257,0.5641303,1.036367,0.2760088,-0.43264586,0.45050392,-1.8038145,1.072936,0.98259026,0.65525657,-1.4946109,0.71097136,-0.40635177,-0.45328698,0.17602733,-0.7502062,-0.105826564,0.02828946,0.69784015,0.19754103,-0.56994945,-0.48093244,-1.3058455,0.77607316,0.057731617,0.032991,-1.5084053,0.06288074,0.6724581,0.7894909,1.0161272,-0.057195492,0.08141225,-0.5383791,0.32672435,-1.1737428,0.13977519,-0.20101699,-1.1543486,-1.3319472,-0.008668738,1.3687509,1.033529,0.2834803,1.1231962,-0.1011287,-0.0052943877,0.8543486,0.31652486,1.2813822,-0.49135256,1.6322247,-0.05913036,-0.4501396,-1.0468727,-0.8492946,-0.23832826,-0.91418695,-1.324445,-0.22263078,0.17170097,0.6716499,0.8336284
882a1001abfffff,-0.3970577,-0.52820563,0.8128991,0.85319173,-0.33437976,0.36848846,0.671913,-1.2942868,0.6755183,-0.056705594,0.7855432,-0.6678598,-0.1595567,-0.20051903,-0.7914578,-0.41131872,-1.3541473,-0.23539877,-0.12693596,-0.01742572,-0.24521929,0.018910429,-1.0856787,-1.3209099,0.78671783,0.16285619,0.39806896,-1.3025275,-0.62086666,0.5569132,1.2886586,0.76279837,0.49967512,0.88698345,-0.15963593,0.03928143,-1.6070756,0.033975575,-0.7531878,-0.81996393,-1.355615,0.56766784,1.4695759,1.1312659,-0.1258991,1.374422,0.106950134,-0.13155414,-0.013552407,0.31916943,0.82959616,-0.32100078,1.4961642,0.5658184,-0.29297927,-1.331582,0.046659507,0.3003593,-0.3668424,-1.6670158,0.2601866,0.07779886,0.3889737,1.438518
882a1001adfffff,0.26032165,-0.96682644,1.1925982,1.0753247,0.060149487,-0.2594121,1.0822312,-1.3060659,1.8238806,1.1117774,0.25652766,-1.6956751,0.3281502,-0.11515145,-0.87227446,-0.5462269,-1.0568575,-0.2067624,-0.35155314,0.20619251,0.43724394,-0.60689396,-0.72081745,-1.3887423,1.0637431,0.6416086,0.35089377,-1.8069817,-0.29685718,0.68438345,0.73754203,0.74151087,0.3400933,0.32215288,0.04673472,0.47823063,-1.4553335,-0.66536844,-0.4928935,-1.631266,-1.1174873,-0.03559159,0.7876333,1.3072709,-0.40689304,1.8996341,0.43728045,-0.04769894,0.386168,-0.4029902,1.1598246,-0.6260463,1.4906652,-0.90338975,-1.1125666,-1.0983115,-0.23052026,-0.23857374,-0.21367872,-0.900269,-0.38849458,0.9076433,1.4249613,0.9523484
882a1001b3fffff,-1.6936973,0.7912998,-0.4924894,1.1144966,-0.5999548,1.1535523,-0.19534676,-0.8646058,-1.0212375,-1.633386,2.3944573,0.25768277,-0.022730665,-1.3016391,0.022418385,-0.7089345,0.44020486,0.58996993,0.060312007,-0.04744336,-0.3258264,-0.0014685582,-1.0984387,-0.05710879,-0.09264164,-1.3512977,-0.35006675,0.0822853,-1.7362571,-0.77016443,1.0709431,0.12136993,-0.6235805,0.2437681,0.20843329,0.9534484,-0.65608203,0.77838373,-0.7969703,0.8296914,-0.21858242,1.8360156,0.5967793,1.011932,-0.44147962,-0.5529308,-1.3420067,1.411499,-0.6189676,-0.19284166,0.3457291,0.132342,0.8682504,1.98851,0.7911854,0.5344379,0.27649146,0.007934527,-0.13161355,-2.6290321,1.8285915,-0.5795196,-0.8242897,1.1775752
882a1001bdfffff,-0.39691463,-0.34386367,0.4199759,-0.0113472,-1.3860124,1.8093934,0.27091122,1.0360353,-0.70619434,-1.1503631,0.88329345,1.8205817,-0.008276079,0.21241516,-0.96895283,-2.053479,-0.8716907,-0.3831121,-0.30692515,-1.4421602,-0.30983627,0.33642218,-1.2970687,-0.38299766,0.031678326,0.09820052,0.5820996,0.050454736,-1.409866,-0.1447551,0.93436795,0.36471167,0.31430092,1.4076416,0.83837485,-0.6417245,-1.3701988,-0.6705516,-0.55499893,0.33962166,-0.59457153,1.4913833,0.4101876,1.3684756,-1.6489824,0.6732065,0.17050682,0.11084391,-1.6046454,-0.045462634,0.6810915,0.8727382,-0.21190798,1.046296,-0.58726996,-0.79525846,0.84026295,1.0318125,0.8506689,-1.0111606,0.84129715,-0.64738125,0.13168903,1.4239752
882a1001c1fffff,-1.0171098,0.02506559,-0.20097367,0.40392464,-0.22861797,0.44166285,-1.0215502,-0.611949,-1.0753261,-0.96524876,1.4417905,0.9283542,0.1755242,-0.61308545,-0.7988813,-0.49807614,-0.41467783,0.5759226,0.6139506,-0.09536647,-0.6716434,0.42220932,-1.3922282,-0.37182647,-0.18447231,-1.2200449,-0.6428287,-0.07498647,-0.21042177,0.015535615,1.581534,0.58586425,-0.6846536,1.2872226,-0.27019665,-0.3480367,-1.1810484,1.3649687,0.14230177,0.48582783,-0.52924526,1.0683297,1.8694428,0.8824107,-0.22303988,-0.03237294,-0.57274556,0.1814515,-0.6767596,0.8151049,0.28160334,0.8814588,0.54873425,1.8355495,0.6324158,-0.66223174,-0.023634825,0.6044049,-0.73770094,-1.8075045,0.9360858,-0.92883325,-1.1662444,1.1175462
882a1001c3fffff,-0.63110775,0.45172557,-0.18814024,0.6473153,0.53031373,-0.07987099,-1.1933881,-1.0821465,-0.8631693,-0.5066317,0.9328909,0.78825134,-0.23866105,-0.691509,-0.67453015,0.47147223,-0.1971547,0.48850146,0.3781587,0.31946132,-0.77534014,0.47225925,-0.838004,-0.5158292,0.24193162,-0.9878258,-0.6755957,-0.25346002,-0.065192565,0.04023666,1.2845709,0.50675666,-0.36400986,1.189991,-1.077712,-0.089243084,-0.9445193,1.8910732,-0.018958677,0.08999623,-0.5877245,0.36513093,2.0123048,0.26705086,0.7745777,-0.08604027,-0.3467666,-0.17930362,-0.18682003,0.9235072,-0.09887425,0.647014,1.0094593,1.548898,0.6621698,-0.6581879,-0.34280556,-0.13171978,-1.0783634,-1.7104577,1.0893401,-0.88178855,-1.1989925,0.44422227
882a1001c5fffff,-0.48180315,0.6661085,0.123692624,0.98218364,0.41520995,0.62397754,-0.5848127,-1.2353513,-1.3083266,-0.24585125,1.0617181,0.5538734,0.58960956,-0.93303627,0.056635536,0.5121819,-0.19808985,-0.37091756,-0.6964589,-0.34694132,0.036819547,-0.86822426,-0.24291442,-0.5602294,0.4401831,-0.40774068,-1.1582597,-0.6283538,-0.79048765,-0.09072088,1.2467598,0.7378966,-0.580266,-0.29926956,-0.7738678,0.8426028,-0.71866435,1.0439141,-0.8714391,-0.33870587,-0.91451496,0.74189115,1.8956184,0.1276736,0.45884192,0.22924083,-0.33546793,0.09056692,0.36936694,0.49310982,1.2053498,1.1780328,1.2622923,1.0364009,-0.15977535,-0.2596434,-0.7292033,-0.7026801,-0.5037457,-1.5471585,1.0432082,-0.7470143,-0.5973597,1.1034877
882a1001c7fffff,-0.2774404,-0.036559887,0.5401817,0.29423425,-0.26706988,0.8210463,-0.04545668,-0.95101595,-0.5202324,-0.20810604,0.44126403,0.33401814,-0.40768787,0.041293006,-0.61171234,-0.23495002,-1.4714588,-0.47645462,-0.25625217,-0.35120878,-0.6697143,0.08525582,-0.8940336,-0.9161203,0.8347319,0.1543192,-0.06816092,-0.7859132,-0.5524857,1.1630023,1.6833614,0.76162624,0.47158152,0.97126037,-0.8053204,-0.41729265,-1.636976,0.73804545,-0.7462168,-0.32937276,-1.4733019,0.60572255,2.038696,0.34875876,0.42621133,0.9302292,0.12092403,-0.9076651,0.26714605,0.818815,0.9336867,0.57955843,1.4104148,0.91811526,-0.21830164,-1.5578741,-0.21517353,0.41920736,-0.6364799,-1.6572005,0.38054246,-0.40462086,-0.18105215,1.5593208
882a1001cdfffff,-1.0025239,0.6704925,-0.03954983,1.0228453,0.44674808,0.49901307,-0.3639927,-1.2557057,-1.5446763,-0.4717512,1.4159822,0.50660956,0.9331396,-0.82670224,0.18182966,-0.05299583,-0.072762504,-0.4599957,-0.15835378,-0.09555889,0.53007096,-0.89903855,-0.1724291,-0.47170192,0.24168366,-0.45846844,-1.2492195,-0.40477824,-0.78393924,-0.20749041,0.984005,1.1295526,-0.6909031,-1.1198374,-0.17896391,0.7955673,-0.54918665,0.8856611,-0.5095319,-0.06256257,-0.8921529,0.7647392,1.4400319,-0.047967963,0.14367364,-0.19890743,-0.9215457,0.34413198,1.0044744,0.6197345,1.5451916,1.3480515,1.1936302,0.9167802,-0.21327761,0.13213381,-1.3436288,-0.64839554,-0.60320765,-1.5525466,0.7983621,-0.82692397,-0.47913474,1.304367
882a1001d1fffff,-0.45197347,0.115047686,-0.5475866,-0.17726175,-1.6435317,1.5587785,-0.037135627,0.99051607,-0.16587925,-0.93323463,0.92533106,0.9517328,0.22818011,-0.28955513,-0.50433886,-1.9105217,-0.18008977,0.51027733,0.049024746,-1.3643855,-0.7293426,0.29125682,-1.7100108,0.22019948,-0.6139789,-0.52439547,0.7314168,0.33928382,-1.189898,-0.3380004,0.8400239,-0.72488976,-0.10946347,2.3583486,0.6694184,-0.5817475,-0.839394,-0.41821107,-0.32692724,0.6099771,0.18568128,1.7136837,0.5346313,1.6610923,-1.5889071,-0.0075254245,-0.23964815,0.7151922,-1.921111,-0.6040441,0.03386081,-0.113683805,-0.589409,1.1947799,0.31552845,-0.347717,1.5769496,1.2618803,0.75717384,-1.089306,0.8315487,-0.31239694,-0.020185541,0.76296425
882a1001d3fffff,-0.39068794,1.0110755,-1.1754036,-0.13654865,-1.2234809,1.4196146,0.14639656,0.80279684,0.098809145,-0.9037914,0.7572767,0.668117,-0.3371492,-0.47558588,0.17366539,-1.3069022,0.7159917,0.89328957,-0.29899767,-0.95135087,-1.0040767,0.47648168,-1.3211956,0.796091,-0.6405303,-0.5742215,1.2439674,0.66802233,-1.604202,-0.7996489,-0.037843276,-1.2554656,0.10736124,2.1521683,0.4084189,-0.037176676,0.02961017,-0.56346405,-0.69495124,0.94702446,0.6525015,1.6154293,-0.24306238,1.0117717,-1.082619,-0.7926291,-0.50251424,1.0251698,-1.7980485,-1.283112,-0.27592856,-1.0422776,-0.9112971,0.96297663,0.67004144,0.53526133,1.8900536,0.37277424,0.9826705,-0.97984946,1.3779033,-0.107425325,-0.043601267,-0.018611213
882a1001d5fffff,-0.23329803,0.5522457,-0.1717222,0.25774896,-0.0502367,0.22523412,-0.8704534,-0.7676823,-0.21226196,0.253173,0.4012011,-0.053949423,0.7244656,-0.5729035,-0.27149236,-0.2833149,-0.3897911,0.31142777,-0.18794602,-0.7412687,-0.6792948,-0.5689038,-1.3498163,-0.25135592,-0.4082421,-0.8114205,-0.9155214,-0.5722311,0.07588283,0.5010488,1.9828483,-0.47208923,-0.78638875,1.9407502,-0.64391416,-0.23301695,-0.9298354,1.2652766,-0.107759394,-0.4719022,-0.25479123,0.63388985,2.3083184,0.88666975,0.013441045,0.37151682,-0.09934083,-0.051251136,-0.27825746,0.0072690086,0.6616554,0.54028594,0.76160234,0.6434744,0.4633491,-0.54784584,0.16956583,0.27415106,-0.541479,-1.2875336,0.51991147,-0.030399937,-0.43492422,0.6929119
882a1001d7fffff,-0.8558618,0.2846975,-0.47226387,0.47769523,-1.3078594,0.88816786,-0.08860955,-0.16072226,0.62062883,-0.66497433,1.1996119,-0.20488366,0.21756303,-0.8022019,-0.5860504,-1.481936,-0.22302166,0.92627716,0.4940372,-0.7368773,-0.7576501,0.25391066,-2.0272675,-0.2716523,-0.46682847,-1.01313,0.3035367,-0.23502544,-1.0122749,-0.136088,1.4840555,-0.9653513,-0.2892035,2.5521622,0.5101259,-0.19833031,-1.1193023,0.21501061,-0.22196507,0.2543568,0.02213908,1.4720443,1.269588,2.2285542,-1.0728879,0.1433271,-0.5178498,0.9733712,-1.843538,-0.6962771,-0.22077052,-0.5780171,0.097124204,1.1518617,0.8027197,-0.4183566,1.4461588,1.1138747,0.022302648,-1.7849705,0.8730595,0.12782626,-0.028349139,0.86937094
882a1001ddfffff,-0.67490804,0.3767378,0.092526615,0.74235284,-0.69945663,1.0367904,-0.2583921,-0.84100765,-0.3347799,-0.65700585,1.1823835,0.060283154,-0.78585917,-0.610971,-0.60302466,-0.8177187,-0.61538255,0.38789517,-0.0152190365,-0.40170303,-1.0810641,0.3158151,-1.3999287,-0.4788014,0.5195443,-0.71307504,0.03474708,-0.52133775,-1.1159577,0.48897302,1.9770831,-0.22620752,0.0391287,2.0046947,-0.53604186,-0.012695114,-1.5529431,0.85429865,-0.7170578,-0.05468828,-0.8028279,1.2749352,1.741946,1.1362181,-0.21881334,0.53979635,-0.16740635,-0.070118785,-0.90040743,-0.16541195,0.40780142,-0.11829082,1.0430534,1.1555777,0.53807575,-0.7694142,0.776135,0.3834763,-0.25903237,-2.3093486,1.2421085,0.009546257,-0.40164042,1.4248266
882a1001e1fffff,0.6180951,0.18776374,1.0480921,0.95944273,0.87303126,0.6359425,0.4910481,-1.0851797,-0.3677808,0.70831597,-0.05641176,0.18525806,0.30321628,-0.24677864,-0.085824125,0.3975881,-0.7868643,-1.2640504,-1.4485558,-0.5200818,0.6345078,-0.980919,0.4813829,-1.0075797,1.2742504,1.1458589,-0.5458728,-1.4056207,-0.85528374,0.46797886,0.37522444,1.1899434,0.33196956,-0.85499233,-0.7624583,0.9980475,-0.7553787,-0.1693442,-1.4039564,-1.2666167,-1.3924791,-0.1409768,1.2347258,-0.020217998,0.42253613,1.4100827,0.6719789,-0.74301565,0.6847204,0.22874847,1.6591837,0.81511384,1.4879403,-0.3742465,-1.5863068,-1.067104,-0.85339373,-1.3895427,0.0889863,-0.6161963,0.24150105,-0.16953193,0.74887496,1.0442055
882a1001e3fffff,0.19097234,0.2617511,1.0888989,1.2369955,1.2295079,-0.03120232,0.03133269,-1.7277539,-0.35737354,0.39621305,0.07782737,0.046862975,-0.5887141,-0.43783957,-0.37847233,1.0343485,-0.8350497,-0.7731123,-0.8788063,0.26065037,-0.0032391017,-0.36653167,0.41349754,-1.2098805,1.4089226,0.5053155,-0.69424516,-1.267472,-0.4444912,0.7185028,1.1107129,1.0332651,0.51799554,-0.45410958,-1.2652342,0.6840258,-1.0653063,1.0292414,-1.0191696,-1.1653198,-1.386527,-0.4403505,1.6513809,-0.3529919,1.2482555,1.1356347,0.35439816,-0.8084865,0.9745667,0.6751092,0.7804701,0.5994992,1.9623841,-0.102667265,-0.8320187,-0.94343275,-0.99040174,-1.1915791,-0.734515,-1.1369793,0.5134714,-0.24501784,-0.031782236,0.9323087
882a1001e5fffff,0.37398195,0.09959297,0.80548704,0.17275636,0.58187896,1.1132666,0.48539415,-0.6185121,-1.1905344,0.4944213,-0.25327897,0.93729055,0.513642,0.35357684,0.061449137,-0.10989722,-1.2117563,-1.5574193,-1.1574123,-0.6793623,0.4800594,-0.86545515,0.545069,-0.6497804,1.0178431,1.2630149,-0.4242975,-0.8398327,-0.6270583,0.93134373,0.42734703,1.515002,0.44134125,-1.022824,-0.6476575,0.20367955,-0.73839253,-0.24518143,-1.0714207,-0.6793439,-1.7029582,-0.052168198,1.2918148,-0.5789117,0.35988295,1.0439724,0.381833,-1.2339672,1.2927219,0.7522646,1.9893695,1.3499786,1.1764268,-0.1679708,-1.6067008,-1.2558765,-1.1563795,-0.83753496,-0.00015764263,-0.30233735,-0.15650415,-0.7368978,0.5023729,1.2675445
882a1001e7fffff,-0.07542922,-0.42499074,1.1216946,0.7249138,-0.019283671,0.96009755,0.96240246,-0.991887,-0.17281075,0.31397414,0.36728856,0.020884652,-0.1604879,0.1835414,-0.6015129,-0.63687676,-1.5929879,-1.051966,-0.6980832,-0.16656145,0.13238323,-0.29367825,-0.41818535,-1.3235015,1.4209036,0.8971412,0.14147885,-1.2602937,-1.0096959,1.0127145,1.1099391,1.2714645,0.76616967,-0.15498891,-0.16189425,0.11089611,-1.6595213,-0.27911767,-1.1505721,-0.86244136,-1.7499826,0.29685754,1.1435137,0.38528758,-0.018135315,1.5985503,0.274245,-0.707007,0.5911346,0.46385226,1.529921,0.31712586,1.5679096,-0.01128539,-1.0484635,-1.4850683,-0.4623996,-0.18339923,-0.15972555,-1.3664302,0.05996893,-0.08065227,0.7547806,1.7746825
882a1001e9fffff,-0.3833743,0.47488055,0.42100772,0.83281523,0.4296028,0.72415566,-0.31863162,-1.1848086,-1.2379886,0.17495288,0.71588004,0.55446965,0.8096513,-0.53693247,0.020059483,-0.043225273,-0.56593907,-0.742452,-0.73982906,-0.4406432,0.42258382,-1.1029868,-0.14128427,-0.66412956,0.61859274,-0.004895128,-1.2341442,-0.7020283,-0.6555035,0.55575585,1.3298726,1.1054056,-0.44760233,-0.72012895,-0.55893636,0.36103278,-0.9023449,0.7678947,-0.6873661,-0.53119963,-1.1703876,0.40455747,1.8503774,-0.0317619,0.34251505,0.46276447,-0.35099888,-0.3486894,1.1769184,0.5556508,1.8312789,1.4252582,1.4123112,0.29734668,-0.6391297,-0.50183135,-1.2662288,-0.5409456,-0.526257,-1.1970948,0.4226869,-0.66898865,-0.12816998,1.3200045
882a1001ebfffff,0.004342481,0.17909871,0.78504986,0.9548129,0.16908455,0.94585234,0.35345817,-1.240122,-0.54689574,0.3956524,0.66912293,-0.06851684,0.82428306,-0.5441226,-0.04378413,-0.29175505,-0.71029496,-1.0239881,-1.0432719,-0.58396375,0.8138827,-1.275704,0.07361296,-0.93539983,0.8923843,0.7168408,-0.6617333,-1.1799934,-1.0630659,0.39466107,0.76420134,1.2030008,-0.13927135,-1.0220895,-0.36262804,0.74811524,-1.0231432,-0.30895203,-1.1342729,-0.94112515,-1.342153,0.5503628,1.3762261,0.48745012,-0.012741439,1.1095582,0.17167024,-0.22119448,0.9291748,0.077676944,2.088652,1.0919898,1.4573904,0.024935732,-1.3507962,-0.8017543,-0.98226446,-0.7176856,-0.0136253275,-1.0965258,0.274387,-0.2760896,0.7543992,1.4988703
882a1001edfffff,-0.4083082,0.138435,0.82547486,0.99481624,0.66819066,0.46050176,-0.47034967,-1.431018,-0.9499896,-0.21533847,0.59573144,0.660035,-0.48689193,-0.43226826,-0.671635,0.2256318,-1.222211,-0.38590568,-0.48493725,0.051403318,-0.45221877,-0.034795072,-0.41299084,-1.1937329,1.1151711,-0.2186186,-0.8957551,-0.85488915,-0.43286735,1.0379285,1.9743612,1.1051967,0.2039534,0.32167715,-1.0847119,0.026509551,-1.5463673,1.5251637,-0.7235206,-0.5892444,-1.4694858,0.06992422,2.334179,0.080025166,0.9637806,0.91389805,0.017785667,-0.8903156,0.44925433,1.0986886,0.7795828,0.913392,1.8052896,0.88855803,-0.10644937,-1.2450337,-0.73656577,-0.26595995,-0.98004293,-1.7438799,0.7314933,-0.6708246,-0.7193579,1.3955424
882a100333fffff,0.057205185,-0.36983913,-0.9238744,-0.14304799,-1.4674565,0.5266493,2.1031408,-0.0020124726,2.2205746,0.04605554,1.3343681,-2.780119,-0.23759297,0.3183691,1.1949257,-1.0558267,0.14909703,0.3808088,0.5812361,-0.030661726,0.053266354,-0.05677677,-0.3748793,0.9314121,-0.24715881,0.419188,2.8139951,-0.03092935,-1.5166303,-0.6601197,-1.8819438,-0.7596322,1.0197606,0.57273614,0.4899428,0.3697108,0.16525047,-2.384979,-0.64121646,0.6558051,-0.26827618,1.5498178,-1.5659744,0.6885819,-0.93985236,-0.73449665,-0.7561672,0.93939614,0.6749527,-1.5525904,0.19851728,-2.989629,0.055578202,-0.0738528,-0.07170695,0.5371626,0.997676,0.22216472,0.66510355,-0.26917455,-0.58575326,1.3059908,1.4507124,-0.3773984
882a100337fffff,-0.5696815,0.21993487,-0.76219845,0.4131113,-0.087895215,0.04433615,-0.9004378,0.13269624,-0.27090448,-0.10355779,1.4523354,0.61531806,2.281599,-1.1816783,0.12614378,-0.24245118,1.4988654,0.7389039,0.3807906,-0.44355863,1.3714561,-1.2379144,-0.120245114,0.42117032,-1.1849449,-0.7978382,-0.65070903,0.5115618,-0.21864258,-1.8525302,-0.8511901,0.5895852,-1.6834606,-1.3392487,0.5835985,0.7270868,0.74149597,-0.27930993,0.61249506,0.417131,0.7223696,0.8492178,-0.38897428,0.92226136,-0.9994506,-1.177113,-1.1935539,1.7761773,0.24953917,-0.43486798,0.5738322,1.0905064,-0.55069476,0.58489,-0.23524198,1.281918,-0.7552182,-0.28413272,0.17679851,0.040738836,0.46906036,-1.0478984,-0.22680148,-0.5709506
882a100425fffff,0.24665906,-0.22187588,-1.1846768,-0.4522492,0.91478187,-1.8467149,-1.1086153,0.3218759,1.4691801,0.9968434,-0.62047184,-0.6638371,0.79312325,-0.15295087,-0.24917537,1.03613,1.2572403,2.1417909,1.7462357,0.5807506,-0.7244355,0.7866565,-0.84715086,0.927387,-1.465722,-1.5341496,0.53565866,0.3469685,1.7376865,-0.508684,-0.82765305,-0.9938871,-0.61006504,1.7100089,-0.09298864,-0.8553422,1.0028975,0.97944623,2.0606143,0.22431953,1.6171767,-0.7786346,-0.8005661,0.1519607,0.27187088,-1.2378887,-1.1938882,0.77555597,0.030188683,-0.43449792,-1.727843,-1.3525981,-1.0810137,-0.67268467,1.2700619,0.9103483,0.14554703,0.30281466,-0.93464786,1.1701008,-0.47815725,0.047400072,-0.41378137,-2.2307696
882a10042dfffff,-0.062476866,0.6466835,-1.5014235,-0.30003157,0.82040477,-1.5637966,-1.0829275,0.067981556,0.921776,0.7240423,-0.3112574,-0.71798277,0.97088355,-0.52288765,0.2949871,1.0907444,1.737333,2.0127985,1.2028245,0.27716208,-0.42265254,0.24399513,-0.7293123,1.2930729,-1.7108861,-1.6265792,-0.14056937,0.5969366,1.1665117,-0.8878156,-0.8095834,-1.2611432,-1.058185,1.1787032,-0.063166544,-0.28359163,1.47635,1.1183211,1.5761445,0.46688336,1.8773104,-0.36116993,-0.86483073,-0.119720854,0.33819544,-1.7036481,-1.4498693,1.2231556,0.41003618,-0.71432596,-1.437009,-0.8848279,-0.9169945,-0.5535488,1.4838389,1.6054598,0.05351253,-0.10112478,-0.7003078,0.8374909,0.01602199,0.09798721,-0.59390944,-2.17907
882a100501fffff,-0.91517603,1.4037528,-1.3514951,0.58858854,-0.039662275,-0.123988435,-0.062936604,-0.52284306,0.3525293,-0.38712642,0.99921304,-0.8613808,0.54237175,-1.0732557,0.8959485,0.043747406,1.7588011,1.301625,0.37173632,-0.2686548,0.16487925,-0.63126296,-0.85330296,1.1857078,-1.4428744,-1.2624397,-0.2709933,0.5102989,-0.77844787,-1.3545097,-0.418923,-1.2050056,-1.0363257,0.115312815,0.6100283,0.89863396,1.212622,0.44810605,0.04857139,0.60844284,1.4419607,1.0254914,-1.0240586,0.44675332,-0.34055018,-1.6274621,-1.8469172,2.1237016,0.47326258,-1.4197528,-0.19142835,-0.69901854,-0.10307402,-0.066805325,1.0406302,2.2036176,0.17539972,-0.47240758,0.10469462,-0.6555867,1.0323064,0.33673215,-0.321463,-0.8045706
882a100503fffff,0.19624086,1.4483062,-1.3448498,0.12537606,0.5490092,-1.043798,-0.5331909,-0.115397796,1.0041713,0.55326664,-0.46246013,-0.81149673,0.3716221,-0.7812367,0.75880814,1.2459481,1.9923156,1.603931,0.045454565,-0.38317546,-0.37801003,-0.2762247,-0.4238753,1.4088081,-1.5898641,-1.2121115,-0.19525565,0.5108414,0.21669047,-1.0898862,-0.69170505,-1.849487,-0.75035495,1.0635115,-0.21758842,0.41630945,1.6532305,0.85469806,0.62083614,0.17241217,2.0090842,-0.0075334436,-0.8875245,-0.13776281,0.34645543,-1.5596857,-1.0602851,1.4293113,0.1207034,-1.49376,-1.006985,-1.0040548,-0.6429865,-1.0071946,1.1067872,2.069099,0.47530872,-0.70554936,-0.07388911,0.6592265,0.61296874,0.5065583,-0.38716832,-1.9558969
882a100505fffff,-0.57920665,0.61293817,-1.3194754,0.021463545,-0.09646346,-0.60983884,-0.09730792,-0.019071298,1.1011463,-0.07962625,0.75284463,-1.0381017,0.8044622,-0.40593895,0.3567846,0.0011434815,1.147774,1.468472,0.983966,0.05806274,-0.4180691,0.073498175,-1.1384672,0.9775392,-1.3595765,-1.277614,0.7960085,0.36660385,-0.0007237818,-1.0036261,-0.67894334,-0.7769529,-0.5501446,1.013214,0.41785198,0.021741934,0.76189095,0.10778787,0.7405692,0.5513043,1.1151582,0.5738314,-0.85460263,0.7363827,-0.49827427,-1.3983887,-1.5990087,1.5422198,0.1291114,-1.0247818,-0.46504587,-1.3762515,-0.4145979,0.08544493,1.0713664,1.1944075,0.38793746,0.256518,-0.090817615,-0.28499293,0.37221673,0.14739546,-0.07807484,-1.1598142
882a100507fffff,0.5700537,0.4937665,-0.35613596,0.6158313,0.25337905,-1.1463616,-0.3730951,0.116191454,1.8024701,0.9850259,-0.33215368,-0.63596046,0.34741092,-0.6529492,-0.42831835,0.369615,1.233903,1.4169071,0.22021568,-0.4978029,-0.23228924,-0.2757286,-0.7967685,0.53106713,-1.1283827,-0.83292544,0.21942957,-0.25367132,0.40237105,-0.79721504,-0.26104525,-1.3812988,-0.5720202,1.6014241,0.13698557,0.05143623,0.46948737,0.29842737,0.89552265,-0.63848275,1.5508233,-0.1308959,-0.59714967,1.0999844,-0.47846785,-0.3666564,-0.4422127,1.3045697,-0.5805991,-1.5531138,-0.77932626,-1.0597773,-0.48933253,-1.3424217,0.107033156,1.2266613,0.74624497,-0.2554934,0.051030304,0.6485814,0.24629289,0.79807067,0.27894127,-1.4673241
882a100509fffff,-0.24079227,0.9426262,-0.66227776,0.28707418,-1.2980932,0.80265206,1.2471452,0.29062396,1.4710727,-0.3436141,0.7074661,-1.0121905,-0.676374,-0.32685226,0.5190893,-1.1014516,0.6703781,0.62914425,-0.38098162,-0.8707941,-0.52935624,-0.08267337,-1.0952804,0.7983854,-0.6026592,-0.14823328,1.5822864,0.15382257,-1.7469014,-0.69385755,-0.41699418,-1.5945126,0.5145848,1.457171,0.6690067,0.33218315,0.16658747,-1.0081124,-0.79404336,0.34725094,0.7758647,1.410796,-1.1746268,1.0089556,-1.0276368,-0.6014925,-0.6493085,1.3152,-0.6615923,-1.9733043,-0.13996352,-1.7984529,-0.13321619,-0.3386726,0.30308324,1.0286118,1.584474,0.1550944,1.0637932,-0.7710122,0.8612294,1.0487652,0.76757175,-0.21459651
882a10050bfffff,-0.0010994673,0.16247001,-0.70297974,0.5347731,-1.0497589,-0.037553925,1.6701046,-0.7866321,2.506534,0.21276683,1.2166004,-3.066426,-0.40808874,-0.39441803,0.8535683,-0.14518557,0.47728592,0.67926544,0.23821385,0.11115645,-0.07745127,-0.20775983,-0.54055655,0.5692555,-0.14920348,0.017612433,2.1879704,-0.5414299,-1.4036072,-0.6327547,-1.2051144,-0.87416303,0.7474934,0.8588102,-0.026583727,0.8114404,0.06472852,-1.5043786,-0.72192514,0.02280636,-0.10027089,1.2821074,-0.9329332,1.1372652,-0.44219786,-0.4778947,-0.7115503,1.1502613,0.53825045,-1.7073483,0.19389507,-2.690768,0.60189,-0.26617804,0.0085395835,0.53976864,0.8518086,-0.077765346,0.324206,-0.8528596,-0.015484385,1.3563176,1.2038271,-0.45070702
882a10050dfffff,-1.0405136,1.8392742,-0.9592697,0.7141327,-0.70106804,1.0032828,0.84209293,-0.26004416,0.03977003,-1.0539179,1.2243533,-0.55209565,0.51037717,-0.8259279,1.4196516,-0.77633864,1.3736035,0.172513,-0.927597,-1.1154693,0.34510252,-1.0705458,-0.7943405,1.0643816,-1.1223172,-0.4456593,-0.08716263,0.32886347,-2.1462998,-1.2549467,-0.21711524,-1.1830252,-0.44997638,-0.21077488,1.0869241,1.3946273,1.0649583,-0.6304864,-1.2014451,0.5839722,0.9232039,1.6613493,-0.8884523,0.6433251,-0.9073194,-1.2951573,-1.3077431,1.9382592,-0.23277503,-1.7235513,0.86536014,-0.661861,0.082577534,0.14961259,0.42627254,1.9311744,0.477467,-0.6201266,1.0310608,-1.1130656,1.5043037,0.48766607,0.18617316,0.28097108
882a100511fffff,-0.19125748,0.8547837,-1.3703753,-0.081010886,0.9985821,-0.88944334,-1.6981423,0.26999146,-0.50131536,0.014303401,0.12629037,0.89447606,0.68670064,-0.5831789,0.09011606,0.96309936,1.5187485,1.5230857,0.6703266,0.11785772,-0.6186663,0.29060915,-0.7635167,0.89213836,-1.2253798,-1.5843829,-0.85589284,0.70315886,0.8235403,-0.8289416,-0.26828766,-0.37509215,-1.1206437,0.991221,-0.30119187,-0.13305004,0.8965457,1.7602836,1.0973724,0.6856689,1.288711,-0.06596484,0.07469502,-0.3917512,0.3421978,-1.4743019,-1.1106682,0.8812106,-0.24251439,0.06302268,-0.85127604,0.21030658,-0.6465783,0.3511044,1.0462251,1.0610675,-0.1499249,-0.46375993,-0.6593204,0.096284434,0.7297044,-0.7586539,-1.3227061,-1.3533447
882a100515fffff,0.65353346,0.47064012,-1.093702,-0.5941079,0.5362871,-1.0923215,-0.7175475,1.0046995,0.88941467,0.82363963,-1.088057,0.65358543,0.24534562,0.2724927,0.096411966,1.0194757,1.3627851,1.275069,0.2118197,-0.26797017,-0.92982984,0.59614015,-0.4323428,1.1838641,-1.281783,-0.8007348,0.6662931,0.6485279,0.8838938,-0.5065952,-1.1626896,-0.9911331,-0.06094279,1.6063064,-0.17201318,-0.76398104,1.2172674,0.5722828,1.1557062,0.32506546,1.5579545,-0.5011722,-0.9977234,-0.5445165,0.1155414,-1.3046409,-0.4194941,0.4305446,-0.41806898,-0.5385682,-1.1635711,-1.0385004,-1.3135089,-0.89410096,0.5286908,0.90231794,0.5632648,-0.2601762,-0.031780947,1.4239851,0.15109317,-0.21149434,-0.41020602,-2.0011404
882a100517fffff,-0.39698982,-0.7513971,-1.353561,-0.78575265,0.482908,-1.5830392,-1.1732831,0.26171628,0.8437753,0.28457758,0.03919173,-0.1819795,0.5385484,0.29390004,-0.5625101,0.5232306,0.5625144,1.899164,2.4860637,1.1902635,-1.0065074,1.4337327,-1.2813686,0.49521655,-1.0772617,-1.494149,0.928174,0.5345642,1.8032894,-0.2515325,-0.41368765,-0.012781586,-0.36115614,1.8981673,-0.05046758,-1.434618,0.27025628,1.0570167,2.1198924,0.7839422,0.7087507,-0.44039443,-0.16786014,0.03228513,0.1436368,-1.1874777,-1.3163997,0.4049225,0.019291513,0.6478267,-1.5378265,-1.1337216,-0.82307214,0.47492307,1.4554213,-0.09397046,-0.0649979,0.9799376,-1.2666245,0.34440693,-0.5331957,-0.675152,-0.8746077,-1.4043274
882a100519fffff,0.2723635,0.3061529,-1.3185985,-0.545328,0.7055592,-1.5709618,-1.0657231,0.21106386,1.3651942,1.1814545,-0.76873595,-1.1012131,1.0999618,-0.20984654,0.21248223,0.85383195,1.27382,1.9715836,1.2119462,0.13753237,-0.7706087,0.21401621,-0.98296756,1.1909081,-1.6706111,-1.4815745,0.116050154,0.33801356,1.541532,-0.16790178,-0.37481195,-1.4365437,-0.8276615,1.8726628,-0.10182412,-0.84918606,1.1304947,0.9926085,1.7169474,0.1552226,1.7188956,-0.5125785,-0.4623431,-0.008346878,0.26474592,-1.3142576,-1.1812755,0.71771455,0.37974057,-0.7820199,-1.1613814,-1.2147393,-0.9080521,-1.020696,1.3628622,1.1063478,0.22452773,0.29571953,-0.7761238,1.0560712,-0.45864698,0.352214,-0.27934444,-2.0632107
882a10051bfffff,-0.18166056,-0.031974148,-1.347759,-0.60761464,0.91610706,-1.5329798,-1.5210981,0.104614764,0.47705138,0.52581996,-0.2275284,-0.18622087,0.72714823,-0.032324173,-0.22774059,0.80779487,0.9449753,1.907442,1.7603946,0.79590315,-1.0887548,0.90155584,-1.266303,0.76223564,-1.2931976,-1.6621135,-0.0007827649,0.4356171,1.7320393,-0.1678078,-0.08471085,-0.57559186,-0.8608595,1.9152385,-0.17156605,-0.99822974,0.5544465,1.5821934,1.7717427,0.577727,1.1765141,-0.4267463,0.16580339,-0.19622415,0.3046969,-1.2514032,-1.2223002,0.50742465,-0.04146053,0.2933348,-1.270535,-0.8301181,-0.7593145,0.14391911,1.5509572,0.41907313,0.11466095,0.37252033,-1.1678423,0.23436652,-0.117707185,-0.40188894,-1.004623,-1.5000895
882a10051dfffff,0.9091607,0.68774784,-1.27709,-0.7315132,0.14535898,-0.6294897,-0.14346322,0.60946625,1.3962544,1.2563232,-0.95732313,-0.75784165,0.6780597,0.22998224,0.74595976,0.5895928,0.8495505,0.900412,-0.039875705,-0.47371623,-0.7558105,-0.22757152,-0.43834287,1.2762685,-0.9368592,-0.24514845,1.0802631,0.2748663,0.49076235,-0.084780365,-1.0126885,-1.0511615,0.11189981,1.541157,-0.44812116,-0.48886484,1.0102628,-0.29482868,0.41314796,0.03417802,0.86254513,-0.10929147,-0.21604957,-0.33535942,0.03351372,-1.0919288,-0.47866628,0.10274618,0.2950534,-1.114595,0.035526305,-1.4650669,-0.75830215,-1.1334763,0.40113527,0.52809125,0.55532235,-0.2100406,0.1362789,1.0120041,-0.29075542,0.25442472,0.27708817,-1.5538962
882a100521fffff,0.07194858,0.83839536,-1.8160768,-0.80059916,0.482632,-1.0456743,-1.2410165,0.36283183,0.61790997,0.6087397,-0.62602574,-0.4928518,0.5113679,-0.2928657,0.42063075,0.60414374,1.4385492,2.0047617,1.0801941,0.077222474,-1.2414932,0.5023757,-1.2465833,1.4484289,-1.5996255,-1.5776148,0.043174416,0.73590416,1.1362599,-0.23308836,-0.14967145,-1.6787373,-0.81357664,2.335062,-0.28500283,-0.8644058,1.1294941,1.2493523,1.2661898,0.6503322,1.7937497,-0.092396215,-0.11140131,-0.3216782,0.24866723,-1.6149573,-1.0927744,0.6828686,-0.06103097,-0.69625247,-1.1816318,-1.1763552,-1.0434332,-0.2926465,1.8131629,1.056926,0.69888794,0.28502807,-0.6321581,0.47989675,0.0936738,0.20635685,-0.6501976,-1.856409
882a100523fffff,0.49860066,-0.08551034,-0.589601,0.40614873,0.123714246,-1.2327342,-0.13330214,-0.809742,2.4730475,1.9824787,-0.20435528,-2.3087351,0.6574911,-0.5323772,0.090698965,0.47634485,0.65780216,1.2532005,0.58805346,0.26929063,-0.27653232,-0.46988624,-0.8502962,0.11751766,-0.5055665,-0.6254663,0.6401656,-0.7647481,0.660923,0.043015204,-0.08265969,-1.1200274,-0.43118197,1.7719514,-0.47454304,-0.010822429,0.010291969,0.057361092,0.8067904,-0.7097776,0.52537495,-0.18569049,0.3415968,0.99743664,0.077706546,-0.06847727,-0.47830084,0.58101237,0.41617012,-1.1846792,-0.017616462,-1.6281942,0.050535038,-1.1750987,0.35626256,0.31937918,0.28333032,-0.09112806,-0.59884226,-0.021706698,-0.4913862,1.023187,0.67073333,-1.0636464
882a100525fffff,0.26803777,0.6097244,-1.7242923,-1.1223193,0.26481175,-0.7663537,-1.0928478,0.68595904,0.5301163,0.56542873,-0.842444,-0.13966942,0.3061538,0.14280497,0.39408222,0.48871526,1.0598089,1.7371013,0.9131225,-0.0876082,-1.5495803,0.7134039,-1.1743028,1.4956279,-1.4800147,-1.2754009,0.64418817,0.7882073,1.0945747,0.05367399,-0.22259632,-1.4587873,-0.4346241,2.489208,-0.3104691,-1.2218032,0.9748721,0.92433035,1.0955192,0.80882055,1.4500889,0.0053056385,-0.0861593,-0.5338171,0.20879513,-1.5258391,-0.9252763,0.24896967,-0.15871249,-0.48570067,-1.090353,-1.2502985,-1.1759145,-0.1783799,1.6257076,0.66963977,0.85296285,0.45637232,-0.44858038,0.6721863,0.02290908,-0.012735377,-0.61953,-1.7521877
882a100527fffff,0.36024645,0.44168445,-1.3387117,-0.54038113,0.6237143,-1.5850236,-0.88183886,-0.38335374,1.5430557,1.56282,-0.77187175,-1.8138804,1.0740916,-0.063206226,0.39104536,0.8712189,0.7696054,1.5104061,1.0453721,0.3543419,-0.90121615,0.060402624,-1.1214671,0.8388066,-1.3070791,-1.0880113,0.13586895,-0.12793925,1.4285624,0.16448684,0.055810634,-1.3840537,-0.721463,2.2431812,-0.48423848,-0.66884863,0.69744194,0.8785635,1.2525156,-0.2134282,1.0872486,-0.45271775,0.60153025,0.101128556,0.44506916,-0.96512765,-0.8708801,0.38213944,0.5214242,-0.6142695,-0.48018488,-1.5183766,-0.43815652,-0.78193766,1.3679196,0.46128595,0.30600387,0.17760782,-0.8996768,0.36248383,-0.47690913,0.5612489,-0.06407952,-1.5919868
882a100529fffff,-0.22017528,0.088095166,-1.5029747,-0.6049039,-0.19529212,-0.792745,-0.5396868,0.64063966,1.0240556,0.14507377,0.10746892,-0.29225832,0.41930673,-0.06678186,-0.10842769,0.01786595,1.0718883,1.8199542,1.4984027,0.15078321,-0.9516566,0.9697824,-1.2357711,1.1034393,-1.446982,-1.3284634,1.2496923,0.71400434,0.580209,-0.7988958,-0.7855803,-0.94453967,-0.3539586,2.0287423,0.3285392,-0.8376229,0.72188646,0.2724039,1.255148,0.8548448,1.2820652,0.30601594,-0.86781716,0.5487712,-0.4635626,-1.4706757,-1.2095718,1.050743,-0.48313114,-0.62516826,-1.2882922,-1.4633719,-1.2064402,0.21314692,1.2544473,0.7848444,0.8312972,0.6464763,-0.26539993,0.39342883,0.0774602,-0.09981864,-0.34938753,-1.5571675
882a10052bfffff,-0.1998689,0.25684533,-1.5918424,-0.82752573,-0.7883562,-0.13505463,-0.037287064,0.87278014,0.96918774,0.109358124,0.11564944,-0.15242149,0.7144246,0.110800765,0.27099758,-0.5711917,0.97641915,1.3788221,1.0672328,-0.35201776,-0.63589865,0.5785114,-1.3022383,1.249923,-1.513316,-0.82128096,1.5113444,0.78832084,-0.06463565,-0.7446395,-1.0113081,-1.0516793,-0.1622601,1.8656486,0.87690145,-0.8292942,0.78936684,-0.5692311,0.69777787,0.8772399,1.1798891,0.75333065,-1.1946653,0.5114538,-0.8827249,-1.5130161,-1.0738977,1.1533434,-0.53780097,-0.89058495,-0.5949009,-1.670131,-1.44017,0.045864988,0.9355028,0.7650018,1.1667753,0.80584395,0.26934823,0.43730673,0.055146623,0.01414232,0.08848604,-1.0958302
882a10052dfffff,-0.63753444,1.0849912,-1.0726507,0.24420959,-0.027530389,-0.14546715,-1.2569866,0.017892418,-0.41616425,-0.2847351,0.8020284,0.22155493,1.5953323,-1.1933519,0.334927,-0.11313457,1.438801,1.2504612,0.22761627,-1.0444508,0.12451771,-0.87072843,-1.2228813,0.9669993,-1.9127054,-1.63201,-1.3858184,0.50820476,-0.089912206,-1.1225667,0.5982176,-1.0631167,-1.8074238,0.8537806,0.5719664,0.3520556,0.7850554,0.9750754,0.5203572,0.4418358,1.5623121,0.96244353,0.33259076,0.9769876,-0.6755353,-1.2635434,-1.1623244,1.7398195,-0.44902804,-0.80477965,-0.033046633,0.5521196,-0.6024139,0.47937164,0.84566385,1.508958,0.15346064,0.11644604,-0.042877268,-0.28019735,0.86103797,-0.15926343,-0.6872461,-0.5542307
882a100531fffff,0.5340163,0.54782665,-1.4380617,-0.96216005,-0.33174318,-0.38281345,-0.2454123,1.4192685,0.84222025,0.68946826,-0.5855036,0.29691848,1.2664102,0.053176474,0.5029771,-0.1638087,1.6117388,1.1792477,0.21828292,-0.9314339,-0.06540481,-0.3664256,-0.67949444,1.6138911,-1.836969,-0.55690724,0.889845,0.90357345,0.25839457,-1.15878,-1.570672,-1.2927325,-0.61373186,0.85130507,0.64626807,-0.45742983,1.6161865,-0.6793401,0.84930444,0.34928304,1.8164237,0.3419221,-1.4116156,-0.12534294,-0.9372442,-1.554239,-0.73870224,1.2151461,-0.08141666,-1.3911937,-0.36556208,-0.74833083,-1.6570057,-0.7239191,0.34376976,1.5427296,0.6791432,0.23290655,0.7168673,1.6846954,-0.014641531,-0.034968484,0.15517686,-1.8112624
882a100533fffff,0.051045995,-0.47103372,-1.1829964,-0.7072969,0.45717606,-1.7225107,-0.51481724,0.33561942,1.3770748,0.74928087,-0.42999598,-0.4570066,0.38599613,0.6490881,-0.3198057,0.8431122,0.6312632,1.3461221,1.7884269,0.8291688,-0.83956164,1.1864061,-0.751881,0.6562816,-1.0481479,-0.8354912,1.403521,0.4058087,1.4996465,-0.33143473,-1.1010306,-0.055995993,0.1665808,1.5624653,-0.0042711566,-1.2182362,0.555256,0.3721148,1.8021601,0.51230985,0.70326984,-0.6228177,-0.72340506,-0.19501817,0.14479356,-1.146978,-0.9777101,0.2774229,0.409928,0.21551728,-1.1424496,-1.3059145,-0.8666174,-0.3719472,0.75849897,0.13971142,-0.17158163,0.49073514,-0.82813156,0.8951595,-0.7450895,-0.3833827,-0.411273,-1.5383183
882a100535fffff,0.07225094,0.43815517,-1.6878297,-0.44614825,0.5842904,-1.3859495,-0.7780601,0.2751319,1.2644255,0.5638195,-0.30648354,-0.8346115,0.41975868,-0.29903373,0.31336012,0.9988448,1.6647478,2.1017954,1.416495,0.54056895,-0.72009766,0.7007282,-0.77852035,1.2475876,-1.4430575,-1.4363451,0.9068782,0.66137165,0.89595157,-0.9889093,-1.1949631,-1.297546,-0.44566625,1.5451838,-0.16271242,-0.38079873,1.2505153,0.6983203,1.3687422,0.5152971,1.7486305,-0.26707196,-1.2453771,-0.13743323,0.2977745,-1.7169856,-1.3541831,1.279574,0.18263906,-0.7855745,-1.6190935,-1.7212867,-1.0325524,-0.34051397,1.4683642,1.3174973,0.5589693,0.0166153,-0.5558261,0.7098907,0.095217295,0.10416462,-0.44399685,-2.2367682
882a100537fffff,0.3442914,1.4709893,-1.1665235,-0.7693701,-0.82747126,0.5071533,0.70402443,1.1285436,0.26000354,0.36557835,-0.474365,0.27414963,1.3578477,0.20291056,1.4910424,-0.66413003,1.4886132,-0.013943637,-0.9867338,-1.8183825,0.6466445,-1.5507743,-0.27983198,1.7942095,-1.7124908,0.29097897,0.07464339,0.7785908,-0.89717346,-0.9584287,-1.3773717,-1.3592601,-0.5163903,-0.47651303,0.90295595,0.23181376,2.039112,-1.258478,-0.24403802,0.30629838,1.4290555,0.91860634,-1.1656421,-0.68804836,-1.1981914,-1.5285017,-0.5950717,1.0728285,0.67059946,-1.7508881,1.0395181,0.021065999,-1.0678544,-1.2251372,-0.29548252,1.9049101,0.19337949,-0.32838804,1.4664719,1.4856758,0.11764839,0.26464164,0.57575995,-0.82076037
882a100539fffff,0.87362415,0.68363,-1.199772,-0.9944414,-0.20715073,-0.16661808,-0.07197922,1.931735,0.6271244,0.6292881,-1.0853196,1.1501362,0.46257046,0.30038986,0.5841555,0.112651855,1.6251621,0.96171665,-0.5435022,-1.264825,-0.49315986,-0.24104014,-0.21880136,1.8209864,-1.5657429,-0.4353469,1.0249892,1.0609648,0.12745209,-1.0516608,-1.7363005,-1.4032124,-0.12861466,0.83882195,0.4025563,-0.44775018,1.8445683,-0.5817275,0.5937823,0.3966715,1.8913641,0.1550717,-1.6711884,-0.72942543,-0.68405384,-1.4419075,-0.3088671,0.8264994,-0.5971293,-1.4931335,-0.73894405,-0.74997455,-1.8487382,-0.989923,0.21133308,1.709718,0.9291057,-0.2275515,1.0032984,2.133093,0.31726995,-0.056037143,0.09348854,-2.0442882
882a10053bfffff,0.51048976,0.23363627,-1.5672531,-1.408716,-0.19585231,-0.33186463,-0.42901048,1.2929479,0.4998998,0.4458705,-1.0464468,0.5606962,-0.25317606,1.0043229,0.24319553,-0.15158664,0.6364394,1.17777,0.5886981,-0.1609982,-1.7854832,1.1521556,-1.0899667,1.3783078,-1.0306153,-0.5606727,1.753225,0.84692526,0.6469806,0.15906763,-0.83170384,-1.0656108,0.35709503,2.6134276,-0.124719955,-1.6631805,0.81527394,0.16716804,0.8257915,0.83174366,0.9124821,0.023130832,-0.596556,-0.82876855,-0.14634672,-1.2180034,-0.47749552,-0.2468765,-0.35497534,-0.2893774,-1.005099,-1.4752208,-1.3099563,-0.09844902,1.1413299,0.26445743,1.0602431,0.6457518,0.11321662,0.9494334,0.010940088,-0.20260467,-0.33638442,-1.5603062
882a10053dfffff,0.5250191,-0.3595198,-0.9153765,-0.11666864,0.03556583,-1.3328965,0.043616418,0.3694423,2.3362606,0.94227755,-0.22831772,-1.2814685,0.13655773,-0.139514,-0.30535048,0.51179594,0.96959805,1.7666025,1.4185203,0.33434576,-0.637241,0.6612019,-0.83106995,0.7355628,-0.97900116,-0.8932377,1.7044485,-0.00702391,0.7467535,-0.7845214,-1.1772337,-1.1028705,0.16312179,1.9169343,0.033578206,-0.4490925,0.4687094,-0.26343834,1.2606589,-0.046084058,1.1871982,-0.19488004,-1.1526569,0.7573132,-0.36247778,-0.7577372,-0.8022509,1.0740503,-0.24497105,-1.165889,-1.3288733,-2.1738248,-0.9081464,-0.85551894,0.5819866,0.78713346,0.8406049,0.3206821,-0.24691959,0.86590993,-0.41556135,0.59464103,0.32188067,-1.8662654
882a100541fffff,-0.17121963,0.74034584,-1.2334504,-0.62477046,-0.44940448,-0.059791856,-0.31488192,1.610292,-0.19426568,-0.13763104,0.014278907,1.5226154,1.3070904,0.18937713,0.23078789,-0.7011381,1.5362858,0.63869625,0.11284492,-1.105445,0.17252687,-0.15384044,-0.8816949,1.2896777,-1.8739439,-0.54216754,0.29912046,1.0348762,-0.24431306,-1.4754087,-1.3742121,-0.5214659,-0.7101873,0.4558384,1.2302655,-0.35651147,1.3288107,-0.36917266,0.7923109,0.7354792,1.5869733,0.6466374,-1.5712392,-0.069832146,-1.4029024,-1.5749406,-0.65200156,1.3157299,-0.4063759,-0.78773606,-0.009785844,0.102530085,-1.6538293,-0.20564581,0.052454423,1.4547416,0.40321612,0.20768322,0.9153651,1.0912917,0.49241066,-0.52265817,-0.16104226,-1.0859777
882a100543fffff,0.2840188,1.2313118,-1.0184137,-0.187791,-0.2938348,-0.07759888,-0.022795688,0.79357964,0.49125716,0.5685052,-0.31348193,0.01814825,1.3367796,-0.3671124,0.9094149,-0.36435908,1.7065154,0.6519732,-0.6169278,-1.5014826,0.5329819,-1.4299701,-0.50758743,1.5066434,-1.8622283,-0.403769,-0.36946404,0.59404016,-0.37046888,-1.1657279,-0.91750866,-1.5009501,-1.1004014,0.053679783,0.7888359,0.28192243,1.7633971,-0.4384542,0.2988595,-0.03268662,1.8511806,0.6271663,-1.0751381,0.052287824,-0.9303757,-1.2749885,-0.82465225,1.5963563,0.29513603,-1.8712915,0.27926478,0.08358167,-0.8811444,-1.1665784,0.06741323,2.3145373,0.15412006,-0.41097274,0.927442,1.2918411,0.3094237,0.41287518,0.34053177,-1.2399712
882a100545fffff,-0.48545566,0.023641195,-0.9824023,-0.57418597,-0.90516347,0.0043440103,-0.30005047,1.4589139,0.04902269,-0.55077046,0.6020839,1.268871,1.5511516,0.219324,-0.40699106,-1.1526783,0.83858716,0.6117919,0.6544428,-0.9195693,0.090293854,0.19709161,-1.4208521,0.769713,-1.7387729,-0.6164839,0.6231365,0.80279285,-0.20377211,-1.4193639,-0.86661863,-0.0053117233,-0.673031,0.93942523,1.418421,-0.72064954,0.47578004,-0.636655,0.9235036,0.68916506,1.1114548,0.9109833,-1.0795966,0.88703495,-1.8464848,-1.0786451,-0.58004737,1.2505786,-0.68317705,-0.33725256,0.034923214,0.2616264,-1.4795833,0.49923438,0.022224661,0.6277838,0.42415288,1.0778582,0.76473916,0.49010324,0.29159555,-0.65444624,-0.10319836,-0.5447678
882a100547fffff,0.2326949,0.81037563,-1.5552418,-1.0194194,-0.21635947,-0.36135405,-0.120662555,1.3943917,0.3783027,0.57424223,-0.5664107,0.4214196,1.2481714,0.16102618,0.856015,0.06903926,1.774685,0.9483064,0.3662798,-0.8059799,0.026314877,-0.50267416,-0.2411085,1.8415527,-1.8891293,-0.52873003,0.64177185,1.1659579,0.3660483,-1.1553782,-1.757569,-1.0749476,-0.5934798,0.054528352,0.5707165,-0.47889945,1.9855144,-0.40141135,1.0035387,0.7259458,1.7332226,0.24638222,-1.696348,-0.82314026,-0.64737284,-1.9061056,-1.0451727,1.1558799,0.57475185,-1.2520988,-0.35460722,-0.49676245,-1.4855624,-1.0346112,0.51991755,1.877742,0.1691504,-0.0858666,0.546622,1.8237853,-0.12447847,-0.21402027,0.005022321,-1.8076986
882a10054bfffff,-0.17787442,1.7018026,-1.5323232,-0.46182126,-0.6043672,0.47518238,0.24635386,0.29029435,-0.35605556,0.09009294,0.15754662,-0.35543197,1.4557189,-0.3560903,1.5680212,-0.53242105,1.4627451,0.24392973,-0.39264256,-1.2501223,0.47215945,-1.4816669,-0.6965604,1.6154765,-1.7088666,-0.2674473,-0.49129876,0.6133903,-0.83342445,-0.9831033,-0.5829806,-1.2603207,-1.0536243,-0.20978513,0.69637597,0.45290622,1.6205076,-0.3817082,-0.4277134,0.45399827,1.2610325,1.2334523,-0.473253,-0.32207987,-0.8613504,-1.5936525,-1.1717352,1.477312,0.81691563,-1.3862338,1.1153867,0.051757872,-0.46785033,-0.47633156,0.44036198,1.9328274,0.09875878,-0.38084182,0.8183057,0.22936341,0.4343574,0.23146908,0.099554226,-0.4135588
882a100551fffff,0.5775046,0.08680667,-0.54722756,0.25247097,0.7356966,-1.4768323,-1.0250841,0.8116391,1.2395787,1.0760416,-0.48946315,0.18047605,1.0740477,-0.63731533,-0.5100396,0.4683298,1.7423971,1.7556965,0.6560276,-0.3635335,0.1679023,-0.44920474,-0.56957525,0.7867782,-1.546452,-1.2323568,-0.24478355,0.28963354,1.1717557,-1.159374,-0.7756162,-0.9969979,-1.2379755,0.76348823,0.34554797,-0.2720291,1.1423914,0.5645395,1.8222747,-0.4108824,1.9887277,-0.5155714,-1.0767043,0.55202925,-0.5411023,-0.76335233,-0.8720419,1.4663625,-0.16893427,-1.3108591,-1.1296839,-0.0736432,-1.0768626,-1.4959353,0.27189887,1.8253436,0.006207132,-0.21977612,-0.075402774,1.6397188,-0.13673064,0.1828544,-0.06496009,-2.1330762
882a100553fffff,0.18030956,0.3839092,-1.4425187,-0.55342764,0.5415022,-1.4459548,-0.94564843,0.31009248,1.3707078,0.96980125,-0.6226126,-0.9613805,0.9884614,-0.24679168,0.22079407,0.66676885,1.3697119,2.0234559,1.1918082,0.071530804,-0.81685615,0.3503342,-1.1213282,1.273754,-1.751406,-1.5098141,0.29207137,0.45803323,1.2390618,-0.44138333,-0.5102573,-1.5256726,-0.8131263,1.9802834,0.10615023,-0.6796174,1.2136723,0.7616578,1.5402888,0.25822282,1.8643314,-0.32005295,-0.6187133,0.1903462,0.03680097,-1.4548175,-1.2173473,0.99663615,0.026016962,-0.9252156,-1.2417314,-1.427313,-1.1341146,-0.7151245,1.4710087,1.1894722,0.5389834,0.33676755,-0.55709624,0.92216134,-0.21865247,0.3766494,-0.28280047,-2.0721114
882a100555fffff,0.41788155,1.3270098,-0.7565764,-0.59400576,-1.1098331,0.94701594,1.0333134,0.99841005,0.767823,0.50719374,-0.6707936,0.08006498,0.39705423,0.42517093,1.3167952,-1.1303654,0.97517,-0.061122052,-1.4665291,-1.886905,-0.11136435,-1.2075512,-0.71405,1.5747048,-1.2260151,0.36356726,0.80696493,0.41814578,-1.3278974,-0.15071937,-0.7094457,-1.9748497,0.11382665,0.74288344,0.8079615,-0.036167204,1.3350712,-1.2798841,-0.7565159,0.09889405,1.3033996,1.0474385,-1.0649898,-0.2777823,-1.0832715,-0.9414754,-0.30482858,0.75857,0.002981267,-1.9976299,0.9418388,-0.9154061,-0.82101226,-1.3231773,-0.32173702,1.4461114,1.0118963,-0.16597617,1.6055319,0.7799379,0.47810563,0.78732026,0.8609046,-0.38551754
882a100557fffff,0.30907556,0.35227743,-1.260554,-0.4737466,0.3447208,-1.287888,-0.7545638,0.3485921,1.4853245,1.1535144,-0.63339216,-0.9695198,1.0035356,-0.17831966,0.08880148,0.25499976,1.1292951,1.8137017,1.0782661,-0.026015038,-0.66259307,-0.025952872,-1.1933405,1.0544086,-1.5143069,-1.2607311,0.35049057,0.31129918,1.2093611,-0.1576093,-0.26870203,-1.4867849,-0.74932,1.9299448,0.10245243,-0.8924711,0.83995944,0.68602717,1.5380363,0.005318346,1.614882,-0.24773838,-0.37836373,0.23091747,-0.19524732,-1.146719,-1.1902441,0.8767526,0.2996101,-1.047731,-0.8203295,-1.1029612,-0.8281875,-1.1373721,1.10314,1.1083225,0.40671307,0.4584799,-0.51802224,0.85718435,-0.4827221,0.44591177,-0.039506305,-1.7764723
882a100559fffff,0.6031309,0.514062,-1.1370857,-0.3422003,0.43178898,-1.2545576,-0.64059925,0.48835766,1.6172245,1.3213177,-0.7533319,-1.1550603,1.1924995,-0.22913425,0.31359473,0.32726052,1.4581757,1.6999992,0.58615804,-0.33831504,-0.43102133,-0.38814017,-0.983027,1.2582766,-1.6930435,-1.0678785,0.28745115,0.24740642,0.9868656,-0.52529055,-0.65850735,-1.7752441,-0.95951235,1.6147047,0.24472651,-0.46571067,1.2429452,0.27619964,1.3099889,-0.2278511,2.0103815,-0.24423778,-0.7487278,0.30735683,-0.33029565,-1.1180489,-0.9282361,1.1449153,0.103881516,-1.5432451,-0.75368595,-1.3428564,-1.0278709,-1.3570386,0.8894175,1.5736693,0.5844821,0.041915532,-0.11446634,1.2163402,-0.28256992,0.7677083,0.24853437,-2.046966
882a10055bfffff,0.24279141,0.54222465,-1.3266035,-0.46575233,0.3960496,-1.2832047,-0.83999056,0.4581316,1.2598544,1.1145322,-0.5795657,-0.9730484,1.51794,-0.36489457,0.35416496,0.35087028,1.5976576,1.7743939,0.9106684,-0.35649878,-0.2235564,-0.39061567,-1.0770936,1.3523197,-2.0422928,-1.2766727,-0.0744353,0.4149468,1.0615395,-0.7800928,-0.63257366,-1.6929103,-1.2331381,1.462724,0.4059512,-0.45343,1.4510269,0.4466911,1.5079552,0.018155666,2.080288,-0.1610455,-0.80104846,0.2908819,-0.3084151,-1.3719034,-1.1639065,1.3701994,0.29611385,-1.3148104,-0.8811791,-0.95255464,-1.119066,-1.0187374,1.0998619,1.7218908,0.31027004,0.18291424,-0.24729562,1.2314141,-0.24658726,0.5257189,0.0154732885,-2.0224538
882a10055dfffff,-0.04882252,1.2394726,-1.0075221,-0.0425416,-0.447318,0.097886495,0.14745817,0.5837934,0.32169205,0.6159941,-0.015446295,-0.29114163,1.4697125,-0.360796,1.1586163,-0.6766222,1.7245219,0.46610132,-0.5204178,-1.4168351,0.7331855,-1.7618299,-0.6475829,1.4623181,-1.8079756,-0.38043937,-0.62118727,0.48993698,-0.56778556,-1.0070255,-0.6299874,-1.481549,-1.2543166,-0.2182636,1.0715479,0.45275417,1.6864341,-0.46954778,0.16009663,0.017196154,1.6827781,0.8802699,-1.0103291,0.09798314,-1.0970092,-1.3544198,-1.114637,1.7883521,0.53077203,-1.8969284,0.82111585,0.0438802,-0.6924974,-1.2123562,0.07380061,2.376917,-0.0076419422,-0.48908553,0.89977634,0.829466,0.35440162,0.52014124,0.40467763,-0.775742
882a100561fffff,-0.819359,0.97033757,-1.5550727,-0.35772675,-0.22773863,-0.16490711,-0.665596,0.34879526,-0.7713636,-0.59977126,0.8462552,0.570212,1.9091997,-0.54058087,0.6110838,-0.29906097,1.5501094,0.85931236,0.47041667,-0.6407167,0.49818826,-0.44222832,-1.0476354,1.2200214,-2.0406296,-1.1531266,-0.6539111,0.8422083,-0.1826456,-1.5485742,-0.79456776,-0.3167369,-1.5394582,-0.036453754,0.9067401,0.18630289,1.302887,0.29789606,0.58932525,0.9861284,1.281808,1.0449839,-0.60218567,0.19595775,-0.9138805,-1.7845771,-1.4275228,1.7224287,0.29634684,-0.25924802,0.2154403,0.59718275,-0.87666005,0.90697473,0.63005483,1.5029291,-0.2525393,0.18373159,0.29644448,0.0727371,0.58325976,-0.67749476,-0.62702006,-0.6574335
882a100563fffff,-0.53628707,0.69604623,-1.246041,-0.20053728,-0.2714898,-0.43610847,-0.2232531,0.06776814,0.72144866,-0.11326632,0.38811743,-0.2734211,0.93285656,-0.24429063,0.125383,-0.15559159,0.5838499,0.9409842,0.65958065,-0.33925462,-0.63343686,0.28884336,-1.3772558,0.7000194,-1.3838513,-0.9675475,0.45341977,0.31913954,-0.07166626,-0.7154882,-0.19297819,-0.61188394,-0.3936639,1.8188941,0.45246062,-0.2873392,0.48694894,0.20130162,0.45344195,0.5084025,0.71650714,0.6235901,0.27809262,0.99331856,-0.5748875,-1.1243982,-0.8787023,0.9709514,-0.5828792,-0.5508733,-0.13901652,-0.74617267,-0.62178,0.4185511,0.8894426,0.39880905,0.519017,0.33206528,-0.026728125,-0.33724037,0.34881133,-0.13726677,-0.25767037,-0.66950715
882a100565fffff,-0.20523463,1.1743292,-1.7252522,-0.78164095,-0.179094,-0.024797618,-0.570561,0.80925727,-0.6223837,-0.1307906,0.13971573,0.5362966,1.5484159,-0.3532502,0.8985216,0.0569707,1.5732555,0.86050016,0.29273847,-0.81363153,0.15420571,-0.61060447,-0.5689029,1.6562575,-1.8977193,-0.82771,-0.18651351,1.0825498,0.044389784,-1.3391181,-1.0556419,-0.762289,-1.1712344,0.055378404,0.4715511,-0.04958585,1.6374701,0.08410455,0.55812854,0.97310334,1.4370501,0.8111854,-0.74095815,-0.52023983,-0.6004905,-1.931794,-1.2659768,1.3166317,0.47125807,-0.6981336,0.063145205,0.24792401,-1.1169819,0.11957061,0.6866855,1.7128003,0.02320402,-0.108704574,0.35152626,0.84782207,0.3355961,-0.51959115,-0.4198887,-1.2003783
